// Comment here to read from analog_pin
//#define SIMULATION
//#define NIGHT_SIMULATION_SERIAL

#define SVM_KERNEL_LINEAR
//#define SVM_KERNEL_POLY


struct data_element {
  unsigned long timestamp = 0;
  bool value = 0;
};

static const unsigned int elements_size = 1000;
unsigned int elements_cursor = 0;
data_element data_elements[elements_size];

// Uses debounce by Aaron Kimball
#include <Arduino.h>
#include <debounce.h>

// Uses ArduinoFFT Library
#include "arduinoFFT.h"

// Physical Settings
#define analog_pin A0

// Connect a button to some GPIO pin
static constexpr int BUTTON = 3;
static constexpr int BUZZER = 5;

bool stream_FFT = false;


// FFT Settings
const uint16_t samples = 64;              // Must be a power of 2
const uint16_t samplingFrequency = 1000;  // Adjust as needed
const uint8_t amplitude = 255;
const float freq_increment = 10;
const float freq_bin = samplingFrequency / samples;

// There are two speedup options for some of the FFT code:

// Define this to use reciprocal multiplication for division and some more speedups that might decrease precision
#define FFT_SPEED_OVER_PRECISION

// Define this to use a low-precision square root approximation instead of the regular sqrt() call
// This might only work for specific use cases, but is significantly faster. Only works for ArduinoFFT<float>.
#define FFT_SQRT_APPROXIMATION



const uint8_t CLENCH_START = 0;
const uint8_t CLENCH_STOP = 1;
const uint8_t BUTTON_PRESS = 2;
const uint8_t ALARM_START = 3;
const uint8_t BEEP = 4;
const uint8_t UDP_ALARM_CONFIRMED = 5;
const uint8_t DETECTED = 6;
const uint8_t CONTINUED = 7;
const uint8_t ALARM_STOP = 8;

#ifdef NIGHT_SIMULATION_SERIAL
#include <cstring>
#include <String>

void send_event_serial(uint8_t event, unsigned long ms) {
  Serial.print(ms);
  Serial.print(";");
  Serial.print("simulation");
  Serial.print(";");

  switch (event) {
    default:
      //print("Received unrecognized byte value: ");
      //println((int)event);
      break;

    case CLENCH_START:
      Serial.print("Clenching");
      Serial.print(";");
      Serial.println("STARTED");
      break;

    case CLENCH_STOP:
      Serial.print("Clenching");
      Serial.print(";");
      Serial.println("STOPPED");
      break;

    case BUTTON_PRESS:
      Serial.println("Button");
      break;

    case ALARM_START:
      Serial.print("Alarm");
      Serial.print(";");
      Serial.println("STARTED");
      break;

    case ALARM_STOP:
      Serial.print("Alarm");
      Serial.print(";");
      Serial.println("STOPPED");
      break;

    case BEEP:
      Serial.print("Beep");
      Serial.print(";");
      Serial.println("WARNING BEEP");
      break;

    case DETECTED:
      Serial.print("Clenching");
      Serial.print(";");
      Serial.println("FIRST DETECTION");
      break;

    case CONTINUED:
      Serial.print("Clenching");
      Serial.print(";");
      Serial.println("CONTINUED");
      break;
  }
}

#endif

#if defined(ARDUINO_UNOR4_WIFI) | defined(ESP32)
#define WIFI_OUT true
#endif

#if defined(ARDUINO_UNOR4_WIFI)
// Uses ArduinoGraphics Library
// To use ArduinoGraphics APIs, please include BEFORE Arduino_LED_Matrix
#include "ArduinoGraphics.h"
#include "Arduino_LED_Matrix.h"  // Include the LED_Matrix library
ArduinoLEDMatrix matrix;         // Create an instance of the ArduinoLEDMatrix class
bool matrixon = false;
const uint32_t fullOn[] = {
  0xffffffff,
  0xffffffff,
  0xffffffff
};
#endif

#ifdef WIFI_OUT
#warning "Wifi out is enabled!"

#include <WiFi.h>
#include <WiFiUdp.h>

WiFiUDP udp;                                 // Define UDP object
WiFiUDP read_udp;                            // Define UDP object
IPAddress multicastAddress(239, 255, 0, 1);  // Multicast address
unsigned int multicastPort = 4000;           // Multicast port
unsigned int multicastReadPort = 4001;

const char* ssid = "YOUR SSID";
const char* password = "YOUR PASSWORD";
#endif

// FFT Settings
float freq = 0.0;
float vReal[samples];
float vImag[samples];
int network_send_bytes = (samples / 2) * sizeof(float);


ArduinoFFT<float> FFT = ArduinoFFT<float>(vReal, vImag, samples, samplingFrequency);




void collect_samples() {
  for (uint16_t i = 0; i < samples; i++) {
    vReal[i] = analogRead(analog_pin);
    vImag[i] = 0.0;
    delayMicroseconds(1000000 / samplingFrequency);
  }
}

void generate_samples() {
  double ratio = (2.0 * PI * freq) / samplingFrequency;  // Simulated 1000 Hz sine wave
  for (uint16_t i = 0; i < samples; i++) {
    vReal[i] = amplitude * sin(i * ratio);
    vImag[i] = 0.0;
  }

  freq += freq_increment;
  if (freq > samplingFrequency / 2)
    freq = 0;
}

void send_parameters_serial() {
  // Send samplingFrequency as uint16_t (Little-Endian)
  Serial.write(lowByte(samplingFrequency));
  Serial.write(highByte(samplingFrequency));

  // Send samples as uint16_t (Little-Endian)
  Serial.write(lowByte(samples));
  Serial.write(highByte(samples));
  Serial.flush();
}

void send_button_serial() {
}

void send_serial() {
  static uint8_t c = 0;

  Serial.write((uint8_t*)vReal, network_send_bytes);  // Send the FFT value as a single byte
  Serial.flush();                                     // Make sure the serial buffer is flushed
}



void nonwifi_setup() {

  Serial.begin(500000);
  while (!Serial) { delay(100); }
  send_parameters_serial();
}

bool alarm_running = 0;

long last_tone_ms = 0, last_flash = 0;

int tone_num = 4;
int tone_sel = tone_num - 1;
unsigned int tones[] = { 1567, 1760, 1975, 2093 };
unsigned int durations[] = { 200, 200, 200, 500 };
unsigned int waits[] = { 170, 170, 170, 4500 };

int warning_beep_duration = 100;
int warning_beep_wait = 50;

void alarm_loop() {
  if (alarm_running) {
    if (millis() - last_tone_ms >= waits[tone_sel]) {
      if (++tone_sel >= tone_num)
        tone_sel = 0;
      tone(BUZZER, tones[tone_sel], durations[tone_sel]);
      last_tone_ms = millis();
    }

    /*
#if defined(ARDUINO_UNOR4_WIFI)
    if (millis() - last_flash > 10) {
      if (matrixon)
        matrix.clear();
      else
        matrix.loadFrame(fullOn);
      matrixon = !matrixon;
      last_flash = millis();
    }
#endif
*/
  }
}

void trigger_alarm() {
  alarm_running = true;
}

void warning_beep() {
  tone(BUZZER, 2600, warning_beep_duration);
  delay(warning_beep_wait);
  tone(BUZZER, 2600, warning_beep_duration);
}

static void button_long_press(uint8_t btnId, uint8_t btnState);
static void button_short_press(uint8_t btnId, uint8_t btnState);

static Button button_input_short(0, button_short_press);
static Button button_input_long(1, button_long_press);

void setup() {

  //pinMode(BUZZER, OUTPUT);
  pinMode(BUTTON, INPUT_PULLUP);
  tone(BUZZER, 1500, warning_beep_duration);

  button_input_short.setPushDebounceInterval(10);
  button_input_long.setPushDebounceInterval(800);

#if defined(ARDUINO_UNOR4_WIFI)
  matrix.begin();  // Initialize the LED matrix
  matrix.beginDraw();

  matrix.stroke(0xFFFFFFFF);
  matrix.textScrollSpeed(100);

  const char text[] = "WiFi";
  matrix.textFont(Font_5x7);
  matrix.beginText(0, 1, 0xFFFFFF);
  matrix.println(text);
  matrix.endText(SCROLL_LEFT);


#endif


#ifdef WIFI_OUT
  wifi_setup();
#else
  nonwifi_setup();
#endif

#if defined(ARDUINO_UNOR4_WIFI)
  matrix.endDraw();
  matrix.clear();
#endif


  tone(BUZZER, 1800, 100);
}


#ifdef SVM_KERNEL_LINEAR
static const double weights[] = { 0.0, 0.0, 0.0, 0.0, 0.0, 0.03024075, -0.02491312, -0.07814609, -0.00452474, 0.11320218, 0.06240921, 0.05600274, 0.09514139, 0.24839361, 0.0868828, 0.08859138, 0.05623244, 0.02611939, 0.06396591, 0.04952518, 0.02164099, 0.0338321, -0.01207925, -0.02539005, -0.00441226, -0.03705283, -0.06566294, -0.01031526, -0.00211347, 0.030516, -0.0066371, -0.05382434 };  // Copia i pesi da Python
static const float bias = -0.8728377955301339;

int classify(float input[]) {
  double sum = bias;
  for (int i = 0; i < (sizeof(weights) / sizeof(double)); i++) {
    sum += input[i] * weights[i];
  }
  if (stream_FFT)
    Serial.println(sum);
  return sum >= 6 ? 1 : 0;  // Soglia 0 per classificazione
}

#endif

#ifdef SVM_KERNEL_POLY

#include <math.h>

// Parametri SVM
const int numSV = 408;       // Numero di support vectors
const int numFeatures = 32;  // Numero di features
static const float supportVectors[numSV][numFeatures] = {
  { 0.000000, 0.000000, 0.000000, 0.000000, 0.000000, -0.198193, -0.457227, -0.629256, -0.515571, -0.380538, -0.439900, -0.384909, -0.309029, -0.254948, -0.339293, -0.604928, -0.332088, -0.332454, -0.537480, 0.942536, -0.295264, 0.508075, 0.270381, -0.130020, 1.361696, -0.399005, 0.752899, 1.098828, -0.087826, -0.527920, -0.151138, -0.596651 },
  { 0.000000, 0.000000, 0.000000, 0.000000, 0.000000, -0.249698, -0.193581, -0.576673, -0.341776, -0.388018, -0.510794, -0.136417, -0.281484, -0.283855, -0.265543, -0.546621, -0.018929, 0.256995, -0.253095, -0.323631, 0.071772, 0.580190, 0.108107, -0.476013, 0.135681, 1.351307, 0.505654, -0.308107, -0.685981, 0.525307, 0.150485, -0.111137 },
  { 0.000000, 0.000000, 0.000000, 0.000000, 0.000000, -0.354573, -0.615250, -0.573097, -0.287259, -0.372778, -0.452283, -0.382116, -0.354243, -0.323926, -0.271757, -0.202545, -0.306950, -0.503914, -0.824267, -0.975370, -0.257575, -0.384441, -0.968319, -0.316933, 0.194428, 1.248545, -1.219840, 0.525278, 0.331898, 1.421259, 1.139427, -0.856756 },
  { 0.000000, 0.000000, 0.000000, 0.000000, 0.000000, 0.195708, -0.013860, -0.264663, -0.464224, -0.340518, -0.397771, 0.250154, -0.297936, -0.305123, -0.175522, -0.457297, 0.084928, -0.454118, -0.466196, 0.671720, -0.861373, -0.857319, 0.159838, 0.285859, -0.232836, 0.328220, -0.384145, -0.296833, 1.438508, 1.293325, 0.119870, -0.177853 },
  { 0.000000, 0.000000, 0.000000, 0.000000, 0.000000, 0.051465, -0.434852, -0.557149, -0.224032, -0.023684, -0.439693, -0.393975, 0.120844, -0.083838, -0.074775, -0.115399, -0.224271, 0.427795, 0.502781, -0.590885, -0.154946, 1.293301, 0.330356, -0.201913, 0.751429, 0.955876, 1.671360, -0.647635, 0.635001, -0.188480, 2.647502, 0.423245 },
  { 0.000000, 0.000000, 0.000000, 0.000000, 0.000000, -0.394508, -0.259762, -0.379356, -0.173610, -0.207166, -0.282161, -0.137714, -0.136625, -0.262911, 0.061727, 0.303683, -0.436336, -0.113274, -0.489512, 0.630804, -0.859438, 0.832640, 0.089338, -0.692002, 0.338521, 0.837570, 0.183662, -0.139449, -0.478302, -0.426652, -0.030594, 0.023419 },
  { 0.000000, 0.000000, 0.000000, 0.000000, 0.000000, -0.072311, -0.014967, -0.337260, -0.352435, -0.053149, 0.182994, -0.500514, -0.189184, -0.228159, -0.016661, 0.229645, -0.051221, -0.584676, 0.021545, 0.069169, 0.250571, -0.375578, 0.522791, 0.949853, -0.383073, 0.591191, -0.856866, 0.137932, -0.202315, 0.657193, -1.115957, 0.045360 },
  { 0.000000, 0.000000, 0.000000, 0.000000, 0.000000, -0.281705, 0.458652, 0.309591, -0.200964, -0.449697, -0.224558, -0.361691, -0.332126, -0.594387, -0.231438, -0.247602, 0.203956, -0.564768, -0.861603, -0.202062, -0.959513, 0.296122, 0.011299, 0.629777, -0.488883, -0.406066, -0.421661, 0.487736, -0.838504, 0.042828, -0.352423, -1.107170 },
  { 0.000000, 0.000000, 0.000000, 0.000000, 0.000000, 0.145441, 1.076618, 0.963694, 0.377237, 0.209802, 0.693423, -0.011462, -0.072265, -0.023990, -0.201093, -0.193175, -0.775442, -0.189164, 0.657697, -0.264638, -0.619115, 0.112466, -0.696673, 0.737434, 1.743842, -0.478452, 0.092719, -1.483611, 1.614550, -0.045999, -0.671286, 0.483270 },
  { 0.000000, 0.000000, 0.000000, 0.000000, 0.000000, -0.551505, -0.249013, -0.104775, 0.190188, -0.041646, -0.342931, -0.524290, -0.063890, -0.296675, -0.083364, -0.022552, -0.322450, 0.059786, -0.443987, -0.004147, -0.725197, -0.041227, 0.548501, 0.008795, -0.058995, -0.544008, 0.783714, -0.847255, -0.503799, 0.036898, 0.757970, -0.761864 },
  { 0.000000, 0.000000, 0.000000, 0.000000, 0.000000, 1.815572, 2.562302, 2.020286, 0.402757, 0.129307, 0.125071, 0.068287, 1.658363, 1.666558, 1.867546, 0.116849, 1.259847, 1.837900, 0.949720, -0.503206, -0.443377, -0.513356, 1.022718, -0.707998, 0.850077, -0.461672, 1.795997, 0.045485, -0.300000, -0.278220, -0.129230, 0.443597 },
  { 0.000000, 0.000000, 0.000000, 0.000000, 0.000000, 0.208933, 1.213189, 1.288703, 1.122168, 0.431027, 0.298458, 0.308757, 0.024023, 0.621951, 0.775565, 1.174524, 0.728102, 1.464353, 0.404373, 0.469334, -0.228154, 1.347424, 0.877634, -1.080662, -0.380402, -1.259417, 2.521847, -1.142909, -0.310784, -0.111294, 1.297970, -0.368879 },
  { 0.000000, 0.000000, 0.000000, 0.000000, 0.000000, -0.552758, -0.323604, -0.385842, -0.486263, -0.399199, -0.097348, -0.474678, -0.218017, -0.486470, -0.336018, -0.052528, -0.433540, -0.451873, 0.256638, 0.084148, -0.146575, -0.779378, -0.274364, 0.654058, 0.118550, 0.076056, -1.319693, -0.669793, -0.572127, -0.509124, -0.580993, 0.291175 },
  { 0.000000, 0.000000, 0.000000, 0.000000, 0.000000, -0.324376, 0.697692, 0.521460, -0.033272, 0.110470, -0.209306, -0.155259, -0.060363, -0.194729, -0.007921, -0.092030, -0.256801, -0.069487, -0.428379, -0.226715, -0.605870, -0.670770, 1.210753, -0.355871, -0.192229, -1.476872, 0.128873, 0.093865, -0.105393, -0.499441, 0.834268, 0.020723 },
  { 0.000000, 0.000000, 0.000000, 0.000000, 0.000000, 0.757747, -0.032012, 0.033255, 0.808522, 0.370381, 0.317780, -0.121301, -0.302778, -0.213027, -0.227390, -0.206185, -0.766742, -0.315608, -0.115497, -1.051106, 0.139227, -0.459560, -1.000518, -0.593257, -0.513748, -0.419509, -1.048047, -0.895420, -0.257477, -0.851336, 0.629462, -1.021990 },
  { 0.000000, 0.000000, 0.000000, 0.000000, 0.000000, 1.011022, 0.859822, -0.361493, 0.221488, 0.408653, 0.640083, -0.566546, 0.334820, -0.198896, -0.513426, -0.305697, -0.238072, 0.010178, -0.106313, -0.535555, 0.180294, -1.265128, -1.454022, 0.164835, -0.319816, 1.117629, 0.714723, 0.781263, -0.437264, 0.852931, -0.152045, -0.580033 },
  { 0.000000, 0.000000, 0.000000, 0.000000, 0.000000, -0.330329, 0.443725, 0.403766, -0.058159, 0.496210, 0.617094, 0.041983, 0.119738, 0.224302, 0.816769, -0.447169, -0.731562, -0.167624, -0.158113, -0.219110, 1.625206, 0.202900, 0.738317, 0.291754, 1.758343, -0.063531, 1.192212, 0.339307, -1.283554, 0.641109, -1.053182, 1.812491 },
  { 0.000000, 0.000000, 0.000000, 0.000000, 0.000000, 0.050348, 0.149897, 0.235792, -0.156986, 0.512323, 1.139415, 0.865743, 0.410097, 0.205206, 0.494746, 0.253683, 0.223483, -0.112907, -0.479623, -0.333832, 0.068613, -0.188068, 1.269878, -0.925517, -0.298982, -0.681206, 1.535522, -0.411568, -0.527530, -0.619930, -1.364621, -1.268648 },
  { 0.000000, 0.000000, 0.000000, 0.000000, 0.000000, -0.051655, 1.157996, 0.048029, 0.890749, 0.748245, 0.466119, 1.482676, -0.075777, 1.039351, 1.920354, 1.248057, 1.660162, -0.322557, 1.407715, 1.653187, 2.999956, 3.298219, 4.074160, 2.796378, 1.871699, 2.313850, 4.752575, 2.988014, 4.842632, 5.844604, 6.592130, 5.819496 },
  { 0.000000, 0.000000, 0.000000, 0.000000, 0.000000, -0.617062, 0.044892, -0.160885, 0.182128, -0.318082, 0.212172, -0.597303, 0.002267, -0.508991, -0.055446, 0.807597, 0.297200, 0.383762, -0.583074, 0.478059, 0.316078, 0.228725, 1.655327, 2.546893, -1.061361, -0.281275, 0.207111, -0.916072, 1.894743, -0.179304, -0.424476, -0.923282 },
  { 0.000000, 0.000000, 0.000000, 0.000000, 0.000000, -0.379559, -0.225765, 0.141698, 0.038200, -0.126183, 0.135021, -0.046671, -0.101928, 0.030213, -0.077893, -0.234938, -0.324389, -0.169458, -0.320890, -0.875432, -0.290525, 0.261836, 0.046913, -1.054447, -0.959244, -0.406625, -0.502792, 0.679595, -0.280342, -0.965297, -0.708718, 0.386393 },
  { 0.000000, 0.000000, 0.000000, 0.000000, 0.000000, -0.083868, -0.020674, -0.014041, -0.321495, 0.503508, 0.552389, -0.456261, -0.217259, -0.359206, 1.130127, 0.602599, -0.234548, 1.063084, 0.078682, 0.818863, 0.034005, -1.384857, 2.365453, 0.190322, 0.025989, 0.279660, 1.307686, 0.191739, -0.980446, 0.453998, 1.281425, 1.018836 },
  { 0.000000, 0.000000, 0.000000, 0.000000, 0.000000, -0.123622, -0.284490, -0.546331, -0.209136, -0.505043, -0.383567, 0.109902, -0.456849, 0.348121, 0.019142, -0.363887, -0.110233, 0.167447, 0.256623, 0.131287, -0.235882, -0.972395, 0.142635, -0.550674, -0.650939, -0.807841, 1.826050, -1.183936, 1.527052, -0.937156, -1.202741, 0.155709 },
  { 0.000000, 0.000000, 0.000000, 0.000000, 0.000000, -0.684868, -0.446347, -0.389521, -0.440339, -0.232388, -0.432522, -0.490305, -0.608677, -0.251819, -0.473916, -0.219860, -0.520667, -0.444209, -0.358806, -0.518674, 0.153847, -0.773791, 0.003976, -0.053261, -0.495813, 0.139767, -0.231599, 0.216134, 0.633916, 0.515544, -0.496512, -0.030235 },
  { 0.000000, 0.000000, 0.000000, 0.000000, 0.000000, -0.375722, -0.294048, -0.514035, -0.332917, -0.441850, -0.380043, -0.263978, -0.465431, 0.018268, 0.179209, -0.423618, -0.025041, 0.525623, -0.024786, 0.030103, -0.839661, -1.014979, -1.399564, -0.141333, -0.463846, 0.007877, 0.578083, -0.385140, -0.819088, -0.260954, -0.044903, -0.472248 },
  { 0.000000, 0.000000, 0.000000, 0.000000, 0.000000, -0.428620, -0.501914, -0.188529, 0.050064, -0.287646, -0.532008, -0.544876, -0.424606, -0.527145, -0.414181, -0.390401, 0.086743, -0.168048, -0.426749, 0.053205, -0.001635, 0.707404, 0.948580, -0.397236, -1.521543, -0.057608, 1.435017, -1.395326, 0.150803, -0.275095, 2.290315, 0.160395 },
  { 0.000000, 0.000000, 0.000000, 0.000000, 0.000000, 1.461661, 0.150731, 0.820817, 1.098861, -0.128919, -0.321502, 0.012223, -0.106313, -0.405873, -0.366091, -0.502509, -0.145804, -0.322414, 0.287839, 0.408393, -0.824180, -0.292946, -1.411858, -0.181503, 0.385762, 0.677967, 1.623990, 0.208424, -1.118927, -0.452590, 0.815344, -1.171144 },
  { 0.000000, 0.000000, 0.000000, 0.000000, 0.000000, -0.373180, 0.233135, 0.489087, 0.127974, 0.624224, 0.133286, -0.292497, -0.268803, -0.117312, -0.306555, -0.489519, -0.357913, -0.519906, 0.436870, -0.896690, 0.663204, -1.070226, -0.406814, 0.391322, -0.354327, -0.533748, -0.777429, 0.951987, -0.862846, 1.285237, 0.456829, -0.202588 },
  { 0.000000, 0.000000, 0.000000, 0.000000, 0.000000, 0.512374, 0.070590, -0.259816, 0.023409, 0.263226, 0.706666, 0.418064, -0.394423, 0.101627, -0.062470, -0.148360, -0.036379, 0.026730, -0.395236, -0.508466, 0.158359, -0.283446, 0.407744, 0.420661, -0.763511, -0.236499, -0.200784, -0.155393, 0.290954, -0.451855, -0.197591, 0.402309 },
  { 0.000000, 0.000000, 0.000000, 0.000000, 0.000000, 0.214892, -0.043938, 0.334729, 0.476525, -0.301859, -0.588990, -0.099583, 0.006855, -0.124963, -0.515097, -0.218094, -0.325345, -0.223058, 0.498600, -0.270921, -0.635596, 0.784073, -0.932647, -0.119534, 0.173411, 0.752748, -0.604240, -0.282867, -0.608603, 1.075991, 0.794301, 1.417155 },
  { 0.000000, 0.000000, 0.000000, 0.000000, 0.000000, -0.205775, -0.281208, -0.540999, -0.348075, -0.421611, -0.324937, -0.308344, -0.588228, -0.407148, -0.227807, 0.062326, -0.774861, -0.099014, -0.113125, 0.726385, -0.097384, -0.510428, -0.160578, -1.002446, 1.789637, -1.013567, -1.143548, 0.184161, 0.033741, -0.356077, -0.860210, -0.901456 },
  { 0.000000, 0.000000, 0.000000, 0.000000, 0.000000, -0.537993, -0.116894, 0.012883, -0.360940, -0.143473, -0.332628, 0.105496, -0.128196, -0.533542, 0.033715, 0.187932, -0.297353, -0.661997, -0.008303, 0.298468, -0.239317, 0.853466, 0.803045, 1.201504, 0.739499, -0.989015, -1.403557, 1.544829, -0.312875, 2.306725, 0.544228, -0.709643 },
  { 0.000000, 0.000000, 0.000000, 0.000000, 0.000000, -0.358248, -0.489883, -0.466597, -0.411404, -0.122780, -0.540880, -0.416715, -0.061226, -0.336723, -0.083314, -0.441999, -0.481785, -0.690992, -0.019543, -0.341588, -0.553551, 0.739014, 1.070769, -0.249416, -1.087690, -1.079299, -0.571875, 0.216134, 0.477768, -0.159972, -0.577467, -1.080495 },
  { 0.000000, 0.000000, 0.000000, 0.000000, 0.000000, -0.036047, -0.168317, 0.032704, 0.041467, -0.469128, -0.251374, -0.431489, -0.398337, -0.221192, 0.055308, -0.107377, -0.650740, 0.490420, 0.811288, -0.278655, 0.234849, 0.051324, 0.904359, 0.221867, -0.320026, 1.993022, 0.763185, 1.468722, 0.491872, 0.939169, 1.307705, 2.169789 },
  { 0.000000, 0.000000, 0.000000, 0.000000, 0.000000, 0.039889, 1.716915, 0.984239, 0.912041, 0.406636, -0.333575, 1.457159, 1.521030, -0.027519, 0.695430, 2.193424, 2.161592, 0.727200, 0.267341, -0.118816, 0.109410, 0.025955, -0.616413, -1.213898, -0.312756, -0.657013, 0.480431, -0.819665, -1.140558, 1.136774, 0.679061, -0.215181 },
  { 0.000000, 0.000000, 0.000000, 0.000000, 0.000000, 2.170636, -0.436887, 0.640235, 2.614319, 1.625135, 0.900957, -0.034430, 0.009482, 1.004073, 1.465777, 0.368247, -0.000259, 0.298764, 1.477417, 0.239291, 0.612299, 2.341856, 1.001270, -0.862764, 0.495548, 1.268109, 0.432648, -0.801631, 0.302433, -0.082739, -0.277671, -0.427866 },
  { 0.000000, 0.000000, 0.000000, 0.000000, 0.000000, -0.471522, -0.394409, 0.262516, -0.150077, -0.095946, 0.578519, 0.599169, 0.089501, -0.189497, -0.353469, 0.131143, 0.007426, 0.348619, -0.613837, -0.710079, 0.116496, 0.235503, -1.103657, -0.222495, -0.765203, 1.490966, 0.119596, -1.367668, 0.068812, -1.608882, 0.431292, -0.537316 },
  { 0.000000, 0.000000, 0.000000, 0.000000, 0.000000, -0.471522, -0.394409, 0.262516, -0.150077, -0.095946, 0.578519, 0.599169, 0.089501, -0.189497, -0.353469, 0.131143, 0.007426, 0.348619, -0.613837, -0.710079, 0.116496, 0.235503, -1.103657, -0.222495, -0.765203, 1.490966, 0.119596, -1.367668, 0.068812, -1.608882, 0.431292, -0.537316 },
  { 0.000000, 0.000000, 0.000000, 0.000000, 0.000000, 0.412238, 0.748038, -0.124721, 0.997518, 0.446881, 0.808371, 0.647377, -0.650986, -0.352363, 0.239758, 0.560795, -0.741855, 0.532276, -0.247579, -0.588473, 0.222355, 0.527759, 0.498260, -0.761631, 1.670691, 0.307656, 0.802319, 0.726893, 0.032665, 0.435979, -0.279859, 0.014904 },
  { 0.000000, 0.000000, 0.000000, 0.000000, 0.000000, 0.206748, 0.069429, -0.074553, -0.660791, -0.276457, -0.400354, -0.462292, -0.355551, -0.225474, 0.409087, 0.144825, -0.210359, -0.507542, 1.250160, 0.246323, -0.591171, -1.351873, 0.024747, 0.226732, 0.666988, -0.486407, 0.659257, 0.861019, -0.894776, 1.255386, -0.255974, 0.805934 },
  { 0.000000, 0.000000, 0.000000, 0.000000, 0.000000, 0.285114, 0.059637, 0.201357, 0.523106, 0.225138, -0.031501, -0.207569, 0.356578, 0.004728, 0.578519, 0.518121, -0.051378, -0.359140, 0.753361, 0.043528, 0.307325, 0.460951, -0.633597, -0.055656, -0.646793, -0.735347, 0.769772, 0.128463, 1.195943, -0.315884, -0.946125, -0.777607 },
  { 0.000000, 0.000000, 0.000000, 0.000000, 0.000000, -0.389853, -0.098086, 0.569294, 0.711505, 0.410635, -0.043202, -0.147603, -0.010294, 0.285512, -0.217929, -0.115831, -0.044380, 1.146934, 1.195274, 0.775649, 0.196217, -0.955023, -0.556164, -1.047201, -0.335322, -0.561514, -1.528364, -1.395429, 0.596030, 0.003058, -0.621249, -0.496820 },
  { 0.000000, 0.000000, 0.000000, 0.000000, 0.000000, -0.479569, 0.125302, 1.056164, -0.171115, -0.098091, -0.293549, -0.169090, 0.407022, 0.386016, 0.217783, -0.345729, -0.213908, -0.083696, 0.472305, 0.706509, -1.029363, 0.703523, 0.439733, -1.034990, -0.426169, 0.317475, -0.578951, -0.058372, 0.530603, 0.548285, -0.231687, -0.797364 },
  { 0.000000, 0.000000, 0.000000, 0.000000, 0.000000, -0.177104, 1.011859, 1.836048, 1.946820, 0.445277, 1.043139, 0.232231, 0.333744, 0.455653, 0.168457, 0.884507, 0.740884, 0.471426, 1.779870, 2.060545, -0.423331, 1.207103, 2.078750, 0.104049, 1.228527, -0.346956, 0.229473, 1.133508, -0.386284, -0.713117, 0.500213, -0.203072 },
  { 0.000000, 0.000000, 0.000000, 0.000000, 0.000000, 1.495424, 0.013320, 0.605557, 2.480720, 1.863182, 2.464426, 3.198096, 5.056420, 3.238447, 0.785750, 0.806220, 0.492610, 0.567776, 0.712475, 1.677949, 1.219397, 0.063130, 0.441126, 1.604193, 1.083489, 0.958403, -0.879898, -1.274915, -0.387516, 0.145777, 0.614653, 1.447524 },
  { 0.000000, 0.000000, 0.000000, 0.000000, 0.000000, 0.354603, 0.731534, 1.860533, 2.090739, 0.947576, 0.900498, -0.286973, -0.265289, -0.257149, -0.324325, 0.643247, 0.505336, -0.141149, 0.234607, -0.453657, 0.851151, 1.778144, 0.103540, -1.368618, 0.587284, 1.619578, -0.757608, -0.251089, 0.457565, -0.538370, -0.119049, -0.551686 },
  { 0.000000, 0.000000, 0.000000, 0.000000, 0.000000, -0.698676, -0.141315, -0.384831, -0.367323, -0.483100, -0.417635, -0.057426, -0.052628, -0.634293, -0.455066, -0.614096, -0.211909, -0.030349, -0.816024, -0.569503, -0.038009, 0.997236, 1.395585, -1.007443, -0.149895, 0.062820, -0.527094, -1.114823, 0.287003, 1.780485, 0.359413, -0.032905 },
  { 0.000000, 0.000000, 0.000000, 0.000000, 0.000000, -0.466127, -0.394412, -0.341819, -0.369681, -0.200931, -0.330282, -0.616457, -0.356167, 0.312596, 0.148390, -0.094098, 1.126799, 0.621104, 1.897634, 4.020119, 1.824643, 1.481239, 2.694656, 3.133093, 1.560336, 2.954176, 4.221302, 1.805656, 4.831770, 5.083058, 3.945567, 3.821241 },
  { 0.000000, 0.000000, 0.000000, 0.000000, 0.000000, 0.689707, -0.045842, 0.030090, -0.578675, -0.431618, -0.341127, -0.238832, -0.264732, -0.489137, -0.305032, -0.640974, 0.059809, -0.089123, -0.411814, -0.356317, 0.198520, -1.156127, -0.488519, -1.183231, 0.905685, -0.077764, -0.836171, 2.457325, 0.475655, 0.320155, 0.077750, 0.432997 },
  { 0.000000, 0.000000, 0.000000, 0.000000, 0.000000, -0.270325, -0.278533, -0.279886, 0.012223, -0.454080, -0.059037, -0.367477, 0.025455, -0.077755, -0.170652, -0.400766, 0.043084, 0.261813, -0.770879, -0.940405, 0.642541, 0.255934, -0.881414, 0.272826, 0.599753, -1.051292, 1.421362, -0.398925, -0.052561, 1.951194, 0.577343, -0.216902 },
  { 0.000000, 0.000000, 0.000000, 0.000000, 0.000000, 0.012054, -0.432987, 0.134163, -0.552400, -0.194883, -0.087980, -0.585490, -0.234323, -0.593614, -0.502252, 0.245880, -0.186474, -0.434738, -0.260991, 0.610213, -1.123320, 0.225427, -0.361610, -0.473344, 2.172763, -0.774279, 0.042547, 1.200327, 0.099652, 1.317573, -0.194958, -1.538206 },
  { 0.000000, 0.000000, 0.000000, 0.000000, 0.000000, 0.425331, 0.209069, -0.392929, -0.236452, 0.281388, -0.226986, -0.276907, 0.347849, -0.442104, -0.255510, -0.084435, -0.346458, -0.286999, -0.825355, -0.125612, -0.562390, -0.968189, -1.012973, -0.751736, -1.226778, -0.263905, -0.952530, -0.293812, 1.306448, 0.337769, -0.477999, -0.053320 },
  { 0.000000, 0.000000, 0.000000, 0.000000, 0.000000, -0.025428, -0.244736, -0.286172, -0.009286, -0.356090, -0.110868, 0.090338, 0.515831, -0.440271, -0.006147, -0.538861, -0.356350, -0.443628, -0.211393, -0.923407, 1.368657, 0.066063, -0.222838, -0.725627, 1.000343, -0.441244, -0.542788, 0.667122, 0.342615, 0.579028, -1.441314, 0.624785 },
  { 0.000000, 0.000000, 0.000000, 0.000000, 0.000000, -0.488490, -0.286176, -0.665115, -0.282021, -0.183369, -0.402729, -0.377289, -0.245986, -0.281923, -0.100141, -0.144280, -0.187052, -0.296537, 0.287789, 0.001089, -0.712992, 0.770791, 1.318423, 0.378293, -0.086956, -1.153848, -1.147156, 0.377246, -0.613147, 0.223608, 0.417548, 1.789255 },
  { 0.000000, 0.000000, 0.000000, 0.000000, 0.000000, -0.252357, -0.322821, -0.294527, -0.476967, -0.346589, -0.448535, -0.469576, -0.166736, -0.383202, -0.182566, -0.391807, -0.252281, -0.103961, -0.450939, -0.376110, -0.361063, -0.087662, -0.889451, -0.407372, -0.260544, -0.305435, -0.031230, 0.319905, -0.642642, 0.356928, -0.902416, -1.274852 },
  { 0.000000, 0.000000, 0.000000, 0.000000, 0.000000, 0.247089, 0.096526, -0.217628, 0.151937, -0.182348, -0.120250, -0.168563, 0.567958, 0.521569, -0.123250, 0.205737, -0.097148, 0.197560, -0.075433, -0.501110, -0.207900, -0.472486, 0.762755, -0.500328, -1.498207, 0.702490, -0.614128, -0.035452, -1.160892, -0.884254, 0.341567, -0.105571 },
  { 0.000000, 0.000000, 0.000000, 0.000000, 0.000000, 0.375682, 0.052468, -0.313953, -0.044017, 0.031263, -0.246806, -0.258295, -0.190590, -0.329879, -0.568250, -0.293226, 0.121661, 0.214412, -0.391527, -0.504836, 0.112508, -1.262681, -0.803188, -0.172651, -0.673473, -0.295107, -1.220905, -0.517192, -0.307775, -0.547781, -0.481141, -0.560462 },
  { 0.000000, 0.000000, 0.000000, 0.000000, 0.000000, -0.130838, -0.016162, -0.252517, 0.002649, 0.212665, 0.193545, 0.420588, 0.343496, 0.369632, -0.083280, 0.221229, 0.123991, -0.292762, -0.237119, -1.157423, -0.069912, -1.469610, -0.090604, 0.644768, -0.471906, -0.187255, 0.237193, -0.052220, -0.319771, -1.674118, -1.362691, -1.025724 },
  { 0.000000, 0.000000, 0.000000, 0.000000, 0.000000, -0.327686, -0.332178, -0.509505, -0.563655, -0.144197, -0.036937, -0.320968, -0.471756, -0.318951, -0.307068, -0.428905, 0.413236, 0.026804, -0.621368, -0.622736, 0.404679, -0.777004, -0.986070, -1.195709, -1.228552, 1.090222, 0.672089, -0.893786, -1.128480, -1.080535, -0.619488, -0.875397 },
  { 0.000000, 0.000000, 0.000000, 0.000000, 0.000000, -0.219272, -0.547974, -0.528698, -0.546250, -0.394980, -0.334640, -0.526541, -0.612908, -0.277184, -0.356727, -0.051472, -0.384168, -0.315972, -0.241405, -0.164991, -1.045469, -0.040341, -0.952566, 0.038374, -0.473971, 0.044750, 0.587404, -0.840312, 0.400278, 0.403546, -1.384375, -0.644417 },
  { 0.000000, 0.000000, 0.000000, 0.000000, 0.000000, -0.626589, -0.202672, -0.427315, -0.466618, -0.359282, -0.201838, 0.100313, -0.489589, -0.621638, 0.217123, 0.015363, -0.123391, -0.426797, -0.240191, 0.655520, 0.599300, -1.175353, -0.369290, -0.194338, 1.577825, 0.314353, -0.755451, -0.171704, -0.655691, 1.478933, 1.410532, -0.381702 },
  { 0.000000, 0.000000, 0.000000, 0.000000, 0.000000, -0.560910, -0.424745, -0.229613, -0.254987, -0.421985, -0.275725, -0.588091, -0.093772, -0.297023, -0.218004, -0.283372, 0.230796, -0.101276, 0.297432, 0.625945, 0.333197, -1.130437, -1.226284, 0.162844, -0.096088, -0.335187, -0.760957, -0.166929, 0.662509, -1.029062, -0.785768, -0.922805 },
  { 0.000000, 0.000000, 0.000000, 0.000000, 0.000000, -0.744918, 0.076176, -0.135293, 0.385829, -0.148609, -0.081633, 0.308937, -0.341368, -0.275708, -0.639004, -0.305116, -0.721419, -0.061053, 0.819447, -0.234782, -0.516895, -0.193800, 0.974324, -0.133890, 0.727231, 0.745241, -0.304167, -0.218921, 1.001244, -0.433509, 0.585535, 1.086075 },
  { 0.000000, 0.000000, 0.000000, 0.000000, 0.000000, -0.285726, -0.470408, -0.446912, -0.370801, -0.497328, -0.389831, -0.432475, -0.252547, -0.058552, -0.315719, -0.461293, -0.695616, 0.078653, -0.865276, -0.514915, -0.044137, -0.182821, -1.202421, -0.603381, 0.324065, -0.701310, -1.325824, -0.023424, 0.644604, 1.749003, 0.608961, 0.799869 },
  { 0.000000, 0.000000, 0.000000, 0.000000, 0.000000, -0.292305, -0.374091, -0.251086, -0.401969, -0.331473, -0.317352, -0.369640, -0.184878, -0.229308, -0.419517, 0.068608, -0.634046, -0.264409, -0.423191, 0.309923, -0.441265, -1.164620, -0.665029, -0.379843, -0.236150, -0.611006, -0.955074, 0.345599, -1.032398, -0.837703, -0.079633, 0.702083 },
  { 0.000000, 0.000000, 0.000000, 0.000000, 0.000000, 0.241975, -0.070968, 0.250970, 0.243324, 0.208528, -0.043188, 0.685815, 0.087119, -0.445735, -0.467464, -0.357864, -0.224691, -0.000035, -0.396941, -0.368952, -0.204545, -1.164213, 0.062960, 0.321497, -0.947975, -0.408411, -0.956978, -1.287639, -1.129719, -0.232893, -0.205036, 0.732401 },
  { 0.000000, 0.000000, 0.000000, 0.000000, 0.000000, 0.022888, -0.281631, -0.153663, 0.549086, 0.218944, 0.733771, 0.163402, 0.236715, 0.024022, -0.086336, -0.429753, 0.280901, 0.601172, 0.456243, -0.051449, -0.263806, 1.386675, -1.530147, 0.293708, -0.214759, 0.368435, 1.146048, -0.020531, -1.126120, 0.202965, 1.566732, 0.273762 },
  { 0.000000, 0.000000, 0.000000, 0.000000, 0.000000, -0.189171, -0.341870, -0.246349, -0.181925, -0.228182, -0.203153, -0.343829, 0.067025, -0.308558, -0.017671, -0.166712, 0.272231, -0.079740, -0.354702, -1.118682, -0.134956, -0.917798, -0.717088, 0.149172, 0.528905, -0.225600, -0.620541, -0.009041, 0.197816, 0.426236, -0.094229, -1.149207 },
  { 0.000000, 0.000000, 0.000000, 0.000000, 0.000000, -0.686514, -0.237592, -0.579831, -0.337500, -0.150113, -0.202659, -0.120939, -0.228781, 0.018690, -0.191653, 0.522108, -0.212246, 0.506932, 0.445327, -0.034372, 0.691566, 0.799700, 1.282321, 1.771632, -0.065236, 3.337847, -0.307388, 2.308688, 0.946445, -1.267797, 2.552326, 0.549551 },
  { 0.000000, 0.000000, 0.000000, 0.000000, 0.000000, -0.498722, -0.305716, -0.339415, -0.526706, -0.306882, -0.582558, -0.215909, -0.414923, -0.217541, -0.097182, -0.184885, -0.380904, -0.264200, -0.193363, 0.101864, -0.947563, 0.756882, 0.585168, -0.168728, 0.238999, -0.210508, 0.810580, 1.741340, 0.551580, -1.589888, -0.030134, 0.919840 },
  { 0.000000, 0.000000, 0.000000, 0.000000, 0.000000, -0.606256, -0.110705, -0.233342, 0.185245, -0.055511, -0.138985, 0.092322, -0.000026, -0.348952, -0.143947, -0.201409, -0.439151, -0.054324, 0.172515, -0.121848, -0.209167, 0.219098, 0.808935, 0.345623, -1.211696, -0.096150, 0.266673, -0.444105, -0.963127, -1.189008, 0.182108, -0.648704 },
  { 0.000000, 0.000000, 0.000000, 0.000000, 0.000000, 0.205731, -0.427037, -0.479944, 0.077179, -0.057363, 0.311300, -0.000252, -0.467701, -0.243446, 0.158265, 0.129495, 0.088744, -0.083913, 0.055940, -0.101063, 0.157712, -0.715666, 0.262854, 0.131400, -0.347506, 0.792354, 0.360406, -0.981591, -0.916531, -0.400445, -1.524212, -0.900166 },
  { 0.000000, 0.000000, 0.000000, 0.000000, 0.000000, 0.027556, -0.100286, 0.016099, -0.228405, -0.309377, -0.407959, -0.304100, 0.162006, -0.122821, -0.222477, -0.111672, 0.772218, -0.126931, -0.380932, 0.001814, -0.658331, 0.063850, -0.017073, 0.156323, 0.429107, -0.580888, -0.936791, -0.363148, -0.348138, -0.140464, -0.629645, -0.026358 },
  { 0.000000, 0.000000, 0.000000, 0.000000, 0.000000, -0.108159, -0.231562, -0.587610, -0.552636, -0.467690, -0.540799, -0.278962, -0.473293, -0.285522, 0.109391, -0.533092, -0.400415, -0.497801, -0.442589, 0.778988, -0.304456, 0.946744, 1.124283, -1.076146, 0.225420, 1.061624, -0.190474, 0.011651, -0.627117, 0.292012, 1.501322, -0.129684 },
  { 0.000000, 0.000000, 0.000000, 0.000000, 0.000000, -0.241779, -0.157806, -0.575409, -0.262289, -0.349308, -0.525456, -0.245223, -0.162180, -0.175281, 0.095564, -0.360988, -0.152648, -0.715373, 0.136460, 0.311578, -0.488581, 0.305699, 1.264601, -1.075960, 0.986982, -0.174636, 1.252464, 0.653427, 0.363158, 2.034796, 0.866365, 0.378114 },
  { 0.000000, 0.000000, 0.000000, 0.000000, 0.000000, -0.185942, -0.421718, -0.478559, -0.098691, -0.410277, -0.170374, -0.361921, -0.438492, -0.223959, -0.530920, -0.019279, -0.251260, -0.371431, 0.634248, -0.433430, -0.396430, -0.783320, -0.970919, 0.986825, -0.322624, -0.488240, -1.041125, 0.371088, 1.700804, -0.219084, 0.113596, -0.043842 },
  { 0.000000, 0.000000, 0.000000, 0.000000, 0.000000, -0.301048, -0.233579, -0.489369, -0.432074, -0.343285, -0.348888, -0.595511, 0.005948, -0.387244, -0.141232, -0.292989, -0.056076, -0.196143, 0.576446, -0.077304, -0.355451, 0.801201, 1.111169, -0.929046, 0.188123, 0.316467, 0.567190, 1.230152, 0.160396, -1.083284, 0.165748, -0.812833 },
  { 0.000000, 0.000000, 0.000000, 0.000000, 0.000000, -0.457937, -0.398838, -0.415871, -0.558500, -0.016537, -0.546755, -0.326848, -0.314244, -0.097920, -0.203101, 0.162731, -0.080305, 0.547394, -0.234312, -0.414057, 0.064410, 1.697217, 0.354659, -0.140629, 0.936221, 2.014021, 0.690736, -1.148005, 1.640229, 0.699388, 0.890165, 0.253263 },
  { 0.000000, 0.000000, 0.000000, 0.000000, 0.000000, -0.471206, -0.527352, -0.599528, -0.154870, -0.196327, -0.535017, -0.299371, -0.399559, 0.050151, -0.183704, -0.467593, -0.138249, -0.245839, -0.387594, 0.285961, 0.762806, -1.168753, -0.777326, -0.104076, -1.308792, -0.419270, 0.530093, 0.183697, 2.098369, 0.457208, -0.573516, 0.012483 },
  { 0.000000, 0.000000, 0.000000, 0.000000, 0.000000, -0.040422, 0.287388, -0.010179, -0.414836, -0.330409, -0.299030, -0.501022, -0.367956, -0.502010, -0.400196, -0.373601, -0.263318, 0.148307, 0.593775, 0.604170, -0.198342, -0.177001, -0.325762, -0.321754, -0.004839, -0.539531, 0.252075, 0.386889, -0.571014, 0.484924, 1.187004, 1.658743 },
  { 0.000000, 0.000000, 0.000000, 0.000000, 0.000000, -0.156955, -0.643668, -0.531882, -0.211887, -0.134281, -0.220489, -0.225805, -0.318103, -0.168308, -0.183790, -0.207360, -0.155960, 0.185198, -0.398449, -1.028250, 0.444895, 0.837658, -0.234033, -0.330461, 1.329106, -0.377199, 0.056031, -0.968209, -0.837001, 0.347724, 0.871308, -0.371120 },
  { 0.000000, 0.000000, 0.000000, 0.000000, 0.000000, 0.427633, -0.462957, -0.187139, -0.036142, 0.123193, -0.183158, 0.041809, -0.302007, -0.185214, -0.239927, -0.369925, 0.082739, -0.323182, -0.540820, -0.006266, 0.803438, 0.146255, 1.088404, 0.605059, 0.665870, -0.770024, -0.455181, 0.179783, 1.618516, 0.777780, 0.088063, 0.846452 },
  { 0.000000, 0.000000, 0.000000, 0.000000, 0.000000, -0.459834, -0.185195, -0.064215, -0.284683, -0.292109, -0.197248, 0.007111, -0.111385, -0.599893, 0.201544, -0.201237, 1.000069, -0.685482, 0.896835, 0.693771, 0.238604, 1.233395, -0.257169, 1.502124, 2.655559, -0.068078, -0.770147, 3.199225, 0.876129, 0.521836, -0.600111, 1.627016 },
  { 0.000000, 0.000000, 0.000000, 0.000000, 0.000000, 0.341310, 0.681941, 0.007618, 0.410028, -0.400883, -0.153325, -0.499390, 0.217889, -0.119430, -0.055349, -0.367387, 0.391155, 0.419493, 0.739239, -0.028890, 0.868245, 0.668772, 1.308559, 0.972241, -0.550265, 1.665615, 3.208374, -0.862711, 1.933572, -0.051412, 2.921833, -0.084877 },
  { 0.000000, 0.000000, 0.000000, 0.000000, 0.000000, -0.688066, -0.465169, -0.287569, -0.258779, -0.358776, -0.524625, 0.031024, -0.252300, 0.041266, -0.209090, -0.091755, -0.248156, -0.112787, -0.532032, -0.654851, -0.809492, 0.943752, 0.044801, -0.629353, -0.468502, -0.260411, -0.139097, -0.652350, -0.516364, 0.414079, -0.808412, -0.783286 },
  { 0.000000, 0.000000, 0.000000, 0.000000, 0.000000, 0.465715, -0.126667, -0.488802, -0.233197, -0.284452, -0.002885, -0.118939, -0.286694, -0.102462, -0.186191, -0.004250, -0.377963, -0.119191, -0.247076, 0.558888, -0.008087, -1.179415, 0.049207, 0.085683, 0.613765, -0.605083, -1.235224, 0.513566, 0.647874, -0.348625, -0.293204, 1.083817 },
  { 0.000000, 0.000000, 0.000000, 0.000000, 0.000000, -0.274665, -0.162727, -0.502338, -0.256155, 0.122251, -0.335738, -0.038407, 0.300822, 0.648879, -0.201787, 0.138591, 2.516524, 2.645941, 0.732756, 2.074206, 4.512383, 5.462936, -0.413916, 1.502431, 7.617006, 6.101953, -0.075853, 2.750434, 8.566943, 5.032511, -0.535639, 4.337311 },
  { 0.000000, 0.000000, 0.000000, 0.000000, 0.000000, -0.171658, -0.155101, -0.313654, -0.022283, -0.132241, 0.513935, 0.270501, -0.259399, 0.013118, 0.158828, 0.341167, 0.404149, -0.022261, 0.635499, 1.114618, 0.737346, 1.281619, -0.237588, 2.079965, 2.218074, 2.669429, 1.104561, 2.376148, 0.556506, 2.503484, 0.937811, 0.724653 },
  { 0.000000, 0.000000, 0.000000, 0.000000, 0.000000, -0.687746, -0.362258, -0.534031, -0.441386, 0.013782, -0.012287, -0.404408, -0.590224, 0.011071, -0.288879, -0.160606, -0.651454, -0.419803, -0.247167, -0.515921, 0.569075, -0.561747, -0.841327, -0.302121, -0.467869, -0.959789, -0.521411, 0.283317, 0.597930, 0.795649, 1.731219, -1.142997 },
  { 0.000000, 0.000000, 0.000000, 0.000000, 0.000000, -0.080100, -0.481785, -0.593795, -0.480005, -0.272447, -0.359437, 0.016568, -0.182055, -0.056718, -0.345848, -0.406630, -0.445459, -0.623159, -0.401864, 0.069045, -0.406514, -0.303412, -1.414134, -0.338988, 0.178338, -1.253848, -0.465560, -0.125189, 0.311725, 2.666411, 0.288857, 0.120825 },
  { 0.000000, 0.000000, 0.000000, 0.000000, 0.000000, -0.575642, 0.031228, -0.209730, -0.585185, -0.377945, -0.179362, -0.045908, 0.024381, -0.251471, -0.656200, -0.450389, -0.330454, -0.241202, -0.727206, -0.668846, -0.915852, -0.074219, -0.606971, -0.319402, -0.888682, -0.662485, -1.051187, -1.422020, 0.167202, 0.373552, -0.219272, -0.959558 },
  { 0.000000, 0.000000, 0.000000, 0.000000, 0.000000, -0.453390, -0.193445, -0.176281, -0.585154, -0.258811, -0.253418, 0.190015, -0.528945, -0.261116, 0.268069, 0.305863, 0.485409, -0.362140, -0.637936, 0.077571, -0.169565, 0.449795, -0.119595, 0.615676, 0.620451, -0.251814, 0.564506, 4.408399, 1.291123, 0.783350, -0.255115, -0.723279 },
  { 0.000000, 0.000000, 0.000000, 0.000000, 0.000000, -0.047303, 0.155421, -0.539392, -0.641014, -0.377000, -0.310396, -0.524068, 0.039048, -0.374978, -0.633235, 0.046131, -0.397535, -0.400722, -0.395013, 1.441627, -0.016573, 0.237740, -0.052332, 0.940867, -0.337557, 1.524199, 0.916972, -0.932293, 1.437830, 0.061195, -0.298774, 0.691910 },
  { 0.000000, 0.000000, 0.000000, 0.000000, 0.000000, -0.264741, -0.463224, -0.365585, -0.058254, 0.070368, 0.315975, -0.342396, -0.553794, -0.080665, -0.123090, 0.784238, -0.064997, 0.605993, -0.680118, -0.032478, 1.163426, -0.286879, 0.423942, -1.055494, -0.311765, 0.671087, 1.864751, -0.711010, -0.251970, 0.340217, 1.515463, -0.168408 },
  { 0.000000, 0.000000, 0.000000, 0.000000, 0.000000, -0.162330, 0.004053, 0.611087, -0.091564, 0.543781, 0.773058, 0.120489, 0.196236, 0.228687, -0.338301, -0.450186, -0.283286, -0.224796, -0.182699, -0.515067, -1.173472, 0.729726, -1.119673, -0.614413, -1.076730, -1.159970, 1.143957, -1.198670, -0.147213, -0.793468, -0.264293, -0.101238 },
  { 0.000000, 0.000000, 0.000000, 0.000000, 0.000000, -0.381582, -0.048189, -0.055807, 0.067923, 0.147882, -0.451144, -0.138281, -0.089766, -0.153705, 0.038419, -0.475673, 0.286648, -0.045730, -0.525055, 1.009987, 0.055066, 0.087539, 0.385378, 0.617661, 0.393050, 0.755505, -0.908162, -0.371822, 0.463897, 0.193534, -0.691020, 0.260504 },
  { 0.000000, 0.000000, 0.000000, 0.000000, 0.000000, -0.556985, -0.314579, -0.221251, -0.587313, -0.101206, -0.508156, -0.406500, 0.010461, -0.511047, -0.307658, -0.091615, -0.266736, 0.378758, 1.051714, -0.210400, -0.277912, 1.031677, 0.631201, -0.158807, 0.605968, 1.118574, 3.352645, -0.208412, 1.341876, -0.613360, 1.863633, 0.083312 },
  { 0.000000, 0.000000, 0.000000, 0.000000, 0.000000, -0.000240, 0.336877, -0.015305, -0.072012, -0.156832, -0.264513, -0.197444, 0.208764, 0.837465, -0.399915, 0.071346, 0.190551, -0.054450, -0.514317, -0.160182, -0.450318, 0.888857, -0.156116, 0.389325, 0.997764, 1.996696, -0.059964, -1.577102, -1.270736, 1.066764, 1.108094, -0.426563 },
  { 0.000000, 0.000000, 0.000000, 0.000000, 0.000000, -0.288166, -0.231464, -0.494221, -0.483757, -0.278893, -0.304706, -0.047707, -0.371064, -0.162043, -0.098373, -0.263919, 0.136311, -0.444221, -0.282104, 0.083862, -0.653365, -0.692042, -0.882772, -0.769155, -0.835978, -0.098997, 0.288498, 0.266750, -0.278321, 0.731271, 0.071277, -0.778551 },
  { 0.000000, 0.000000, 0.000000, 0.000000, 0.000000, -0.258736, -0.435177, 0.299162, 0.031291, -0.420357, -0.427552, -0.307986, -0.312174, -0.264686, -0.214317, -0.349871, -0.607674, -0.713521, -0.677166, -0.444996, -0.816322, 1.938562, 1.778906, -0.330961, 1.490004, -1.085094, 1.495832, 2.152948, -0.250644, 0.238014, -0.610019, 0.504649 },
  { 0.000000, 0.000000, 0.000000, 0.000000, 0.000000, -0.077782, 0.009596, -0.029154, -0.014077, -0.162040, -0.135034, -0.160251, -0.334021, -0.418375, -0.522495, -0.339430, 0.044353, -0.176440, -0.571881, 0.463150, -0.513153, -0.757337, -0.301115, -0.156486, -0.126464, -1.113695, 1.137410, 0.473151, -0.601543, 0.724010, 0.484058, -0.030129 },
  { 0.000000, 0.000000, 0.000000, 0.000000, 0.000000, -0.186589, 0.443091, -0.130717, -0.309814, -0.120962, 0.002116, 0.290580, 0.151719, -0.215840, -0.228832, -0.242548, -0.556108, -0.481161, -0.244577, -0.715627, 0.926332, 1.090955, 0.327984, -0.498013, 0.115159, -0.480281, -1.172567, 1.042200, -0.854362, -0.653145, -0.750153, -0.689287 },
  { 0.000000, 0.000000, 0.000000, 0.000000, 0.000000, -0.132371, -0.423752, -0.415013, -0.495218, -0.234404, -0.280540, -0.266732, -0.458041, -0.156632, -0.326932, -0.173043, -0.122354, 0.411140, 0.076095, -0.754689, 0.008742, -0.244330, -1.127689, -1.010336, -1.348279, 0.375016, -0.041035, -1.214497, -0.631610, 0.354733, -0.993461, -0.912406 },
  { 0.000000, 0.000000, 0.000000, 0.000000, 0.000000, -0.453004, -0.352989, -0.470268, -0.160927, -0.358460, -0.319469, -0.412436, -0.307759, -0.618859, -0.237756, -0.403238, 0.189242, -0.578826, -0.571344, -0.966348, 0.415969, 0.332089, -1.081436, -0.068750, 1.460677, -1.007404, 1.076384, -0.223542, 0.732101, 0.773882, -0.122985, -1.314698 },
  { 0.000000, 0.000000, 0.000000, 0.000000, 0.000000, -0.353353, -0.321877, -0.416947, 0.088739, -0.389889, -0.161246, -0.322672, -0.482988, -0.195662, -0.514515, -0.387628, -0.085702, -0.541671, 0.178947, -0.707081, 0.083415, 0.611469, 1.655764, 0.716647, -0.784242, 0.557625, -0.131804, 0.361039, 0.315775, 0.889384, -0.676546, -0.505182 },
  { 0.000000, 0.000000, 0.000000, 0.000000, 0.000000, -0.666681, -0.325445, -0.276486, -0.374277, -0.263777, -0.242703, -0.264014, -0.197855, -0.273429, -0.108086, -0.387678, -0.379687, -0.608230, -0.505193, 0.035769, -0.416975, -0.778821, -0.361705, -0.000705, 0.407845, -1.006358, -0.135209, -0.449518, 0.170623, 0.101883, -0.058863, -0.428088 },
  { 0.000000, 0.000000, 0.000000, 0.000000, 0.000000, -0.114818, -0.248763, -0.367722, -0.330957, -0.194398, -0.481332, -0.103569, -0.578673, -0.418734, -0.467791, -0.342904, -0.592532, -0.250475, -0.531161, -0.394297, -0.391629, 0.958057, 1.460894, -0.739994, 0.855182, 0.120239, 0.048968, 0.108624, -0.206184, -0.536866, 0.468082, 0.604558 },
  { 0.000000, 0.000000, 0.000000, 0.000000, 0.000000, -0.481024, -0.399462, -0.165878, -0.308780, -0.069881, -0.324143, -0.556524, -0.307070, -0.099434, -0.345476, -0.517500, -0.259889, -0.569645, 0.083049, -0.511009, 0.953423, 0.771789, -0.698018, 0.782882, 0.496653, -0.750707, 0.343166, 0.681760, 1.365253, -0.625523, 0.086263, 0.389199 },
  { 0.000000, 0.000000, 0.000000, 0.000000, 0.000000, -0.160206, 0.463136, 0.008162, -0.003288, -0.229472, -0.500656, -0.535359, -0.470231, 0.105365, -0.581570, -0.183083, -0.273887, 0.105499, 0.208841, -0.470467, -0.403948, -1.144128, 0.061729, 0.159331, -1.078987, -0.206060, 0.797159, 0.562323, -0.052192, -0.075569, 0.437779, 0.045829 },
  { 0.000000, 0.000000, 0.000000, 0.000000, 0.000000, 0.324927, 0.770056, -0.571693, 0.439749, 0.036299, 0.709763, 0.697182, 1.035212, 0.201303, -0.166075, -0.392507, -0.036642, -0.317254, -0.066316, -0.954626, -0.346933, -1.268782, 1.384800, 0.813506, 0.484926, -0.222692, -1.197896, -0.242811, -0.790947, -0.490019, -0.483237, -0.716036 },
  { 0.000000, 0.000000, 0.000000, 0.000000, 0.000000, 0.225860, 0.619186, 0.430062, -0.212123, 0.435642, 0.433013, -0.316251, 0.161067, -0.065275, -0.421394, -0.121889, -0.690062, -0.084325, -0.112778, -0.055127, 0.423563, -0.980496, -1.083015, -0.932555, -0.954956, 0.045340, -0.869380, -0.567558, 0.357656, 0.366157, -0.697149, -0.640082 },
  { 0.000000, 0.000000, 0.000000, 0.000000, 0.000000, 0.451090, 1.417625, 1.113259, 0.595396, -0.097594, 0.013628, 0.272414, -0.250771, -0.012132, -0.363301, 0.071727, -0.346841, -0.460849, 0.090167, -0.278246, -1.021754, 1.153474, 1.038608, 0.334872, -0.325328, -0.406172, 0.697897, -1.215828, -0.695509, 0.580080, 1.014321, -0.150146 },
  { 0.000000, 0.000000, 0.000000, 0.000000, 0.000000, 0.538282, 0.575685, 1.240867, 0.338500, -0.048097, -0.003039, 0.215985, -0.126960, -0.302360, -0.281777, 0.415989, -0.265465, -0.324998, -0.118840, 0.912845, -0.268418, -0.376868, 0.189948, -0.241166, -0.413171, -0.081890, -1.240123, 0.701430, -0.248095, -0.655727, -1.231802, 0.541421 },
  { 0.000000, 0.000000, 0.000000, 0.000000, 0.000000, -0.008009, -0.540080, -0.179427, 0.964704, 0.474844, 0.870325, 0.435645, 0.119836, 0.545792, 0.975620, 0.207888, -0.276948, -0.449204, -0.124580, 0.523361, 1.429937, -0.546706, -0.411431, -0.518065, 1.195931, -0.652169, -1.156417, 1.790304, -0.201772, 0.195302, -1.185030, 0.154324 },
  { 0.000000, 0.000000, 0.000000, 0.000000, 0.000000, 0.496648, 0.141974, -0.087293, -0.079270, -0.388087, -0.440217, 0.135035, -0.302444, -0.327511, -0.382231, 0.302410, 0.113473, -0.251915, 0.058978, 0.278163, 0.164267, -0.789354, -0.230128, 1.390536, -0.063748, 0.942937, -0.946917, 1.339481, 0.340654, 0.626174, -0.421494, 0.839914 },
  { 0.000000, 0.000000, 0.000000, 0.000000, 0.000000, -0.654297, -0.440506, -0.221953, -0.067764, -0.376855, -0.434256, -0.450081, -0.343278, -0.112347, -0.336016, -0.328067, -0.124748, -0.687590, -0.958807, -0.397587, -0.969020, -0.381542, -0.872449, -0.249094, -0.132320, -1.557475, 0.011373, -0.229486, -1.052824, -0.357065, -0.597838, -0.813993 },
  { 0.000000, 0.000000, 0.000000, 0.000000, 0.000000, -0.016902, -0.073260, 0.108510, -0.532234, 0.136123, -0.385885, 0.078533, -0.175602, 0.573099, 0.050406, -0.315010, 0.608596, 0.402219, -0.180984, -0.288683, 0.289222, 1.159692, 1.388181, -0.920714, 0.985934, -0.895299, 2.827616, -0.039583, -0.171699, 0.615390, 0.804923, -0.440483 },
  { 0.000000, 0.000000, 0.000000, 0.000000, 0.000000, -0.485127, 0.060746, 0.467853, 0.179984, 0.037929, 0.439355, 0.586438, 1.206581, -0.281278, 0.232756, 0.721871, -0.184373, 0.881640, 0.328705, 0.465516, 1.122934, -1.321514, 2.131279, -0.343886, -1.169137, 0.174732, 2.669220, -0.607474, 0.031891, -0.328183, 0.824898, 0.275405 },
  { 0.000000, 0.000000, 0.000000, 0.000000, 0.000000, 2.431764, 2.038343, 2.527212, 1.305406, 0.886950, 1.210745, 0.968736, 1.553201, 1.504912, 0.013892, 0.753443, 1.089393, 1.077442, 1.963207, 0.156328, -0.478689, -0.198319, -0.507664, -1.149939, -1.145762, -0.880269, -1.061746, 1.924524, -0.218426, -0.254567, -0.489381, 0.947450 },
  { 0.000000, 0.000000, 0.000000, 0.000000, 0.000000, 0.948281, 1.005780, -0.326597, 0.520119, -0.195643, 0.471218, 0.250506, -0.292424, 0.715977, -0.291190, -0.041694, 0.940678, 0.724707, 2.001751, -0.440516, -0.579404, -1.080662, -0.604314, 1.369770, -1.051844, 0.957962, 1.885470, -1.399950, 1.008683, -0.937221, -1.159009, 0.212393 },
  { 0.000000, 0.000000, 0.000000, 0.000000, 0.000000, 0.047644, 0.302548, -0.369223, -0.448368, -0.028305, 0.270155, 0.396175, 0.504289, 0.152576, 0.135606, -0.176345, 0.731446, 0.137800, -0.477461, -0.524589, -0.373981, -0.032947, -0.102084, -0.261498, 0.987888, -1.225935, -0.878514, -0.522717, -1.331624, -0.378582, -0.099567, 0.431936 },
  { 0.000000, 0.000000, 0.000000, 0.000000, 0.000000, -0.747714, 0.015752, 0.881442, 0.985012, 0.102066, -0.141390, 0.154804, 0.255265, 0.064521, 0.120465, 0.998682, 0.780134, 0.179695, 0.013919, -0.696156, 0.816270, -0.515250, 0.537887, 1.074062, 0.556885, -0.259268, -0.902778, -0.411233, -0.520867, -1.014763, -1.154277, -0.166350 },
  { 0.000000, 0.000000, 0.000000, 0.000000, 0.000000, 0.998741, 1.230960, 1.018338, 0.239479, 0.191736, -0.106550, 0.689121, 0.923266, -0.236673, 0.002818, 0.230999, -0.430342, 0.574510, -0.505782, 0.242864, 0.300336, 0.130851, 1.618415, -0.055810, -1.245452, -0.357155, -0.836377, -0.729275, -0.278536, -0.512885, 1.407917, 0.850927 },
  { 0.000000, 0.000000, 0.000000, 0.000000, 0.000000, -0.426067, 0.247020, 1.146146, 0.426559, 0.095377, 1.187688, 0.791290, 0.688232, 1.406926, 1.030252, 1.231539, 1.060304, 0.379853, -0.683047, -0.817517, -0.037607, 1.555494, 2.090318, 1.305115, 0.338007, -0.698149, 0.412683, -0.089028, -0.480013, 0.317980, 1.916433, -0.299607 },
  { 0.000000, 0.000000, 0.000000, 0.000000, 0.000000, 0.182316, 0.978926, 0.553545, 0.281800, 0.290615, 0.596232, 1.662605, 1.399323, 0.434003, 1.594621, 1.055049, -0.005789, -0.252490, 0.241400, -0.985369, -0.618359, 2.547552, -0.648234, 0.555885, -1.215603, 0.486658, 0.432787, 0.238861, -0.814024, -0.266386, 1.998217, 2.384406 },
  { 0.000000, 0.000000, 0.000000, 0.000000, 0.000000, 0.245224, -0.070331, -0.001904, 0.471457, 0.400058, 0.362075, 0.868464, 0.997965, 0.698978, 0.073425, 0.483976, 1.467304, 0.517724, 2.024519, 1.897021, -0.354341, 0.120703, 1.216724, -1.091117, -0.943510, -0.788314, 1.993486, 0.096664, -0.657656, -0.171000, 1.204930, -1.051940 },
  { 0.000000, 0.000000, 0.000000, 0.000000, 0.000000, -0.387687, -0.623030, -0.075872, -0.120820, 0.158004, 0.168427, -0.392009, -0.164487, -0.025285, -0.485308, -0.336118, 0.794083, 0.078390, -0.518641, -0.555292, 0.209020, -1.341434, 0.029716, -0.239417, -1.046911, 0.598790, -0.043516, -0.444184, -0.600783, -1.035429, -0.669541, -0.370101 },
  { 0.000000, 0.000000, 0.000000, 0.000000, 0.000000, -0.189833, -0.547036, -0.214350, -0.094792, 0.100840, -0.197134, -0.035966, 0.690442, 0.041296, -0.348463, -0.240024, -0.458943, -0.047251, 0.079347, -0.247803, -0.092752, -1.034900, 0.424572, 0.974376, -0.137086, 0.359093, -1.043475, -1.420423, -0.713708, -0.439856, -0.207913, -0.346785 },
  { 0.000000, 0.000000, 0.000000, 0.000000, 0.000000, -0.135835, 0.469156, 0.350189, 0.182979, -0.045660, -0.267854, -0.175922, -0.287493, -0.227097, 0.321254, -0.316260, -0.016991, -0.221903, -0.579628, -0.175209, -1.068266, 0.852989, 1.186922, -0.147929, 1.471531, -0.036150, -1.176650, -0.601944, -0.192671, -0.865104, -1.079545, -0.148720 },
  { 0.000000, 0.000000, 0.000000, 0.000000, 0.000000, -0.304152, -0.226981, -0.180257, -0.420190, 0.169230, 0.826432, 0.302501, 0.149025, -0.213384, 0.475438, 0.245166, -0.797153, -0.593122, 0.089157, 1.540179, 0.354899, -0.096579, 0.420495, 0.238785, -0.967493, -0.260168, 0.260872, 0.114964, 0.209644, -1.100201, -1.130344, -1.230266 },
  { 0.000000, 0.000000, 0.000000, 0.000000, 0.000000, -0.426347, -0.533449, -0.300090, -0.626542, -0.452683, -0.468578, -0.599902, -0.205979, -0.322539, -0.366795, -0.335636, -0.125286, -0.094041, -0.281916, -0.797029, 0.596365, 0.215777, -0.349966, -1.060020, -0.064298, -0.675978, -1.165115, 0.678224, 0.425503, -1.374200, 1.121834, 0.231245 },
  { 0.000000, 0.000000, 0.000000, 0.000000, 0.000000, -0.657174, -0.442598, -0.475160, -0.429713, -0.233370, -0.175878, -0.570523, -0.601969, 0.149622, -0.616956, -0.673618, -0.564208, -0.435523, -0.313853, -0.943971, 0.352636, -0.787919, -1.313534, -0.577442, -0.541578, -0.320773, -0.685305, -0.536121, 0.487198, 0.583299, -0.494674, -0.968939 },
  { 0.000000, 0.000000, 0.000000, 0.000000, 0.000000, -0.384275, -0.339405, -0.433350, -0.407558, -0.372815, -0.372836, -0.348312, -0.371975, -0.602106, -0.373076, -0.368953, -0.155825, -0.333578, 0.079277, -0.107128, -0.603375, 0.427785, 1.137188, -0.492120, -0.350159, -1.087627, -0.859970, -0.540216, -0.007859, -0.062183, 0.779532, 0.189034 },
  { 0.000000, 0.000000, 0.000000, 0.000000, 0.000000, -0.193518, -0.338500, -0.248471, -0.638160, -0.274967, -0.389386, -0.361022, -0.470259, -0.129884, -0.488880, -0.191527, -0.528606, -0.042440, 0.376665, 0.111027, -0.390644, 0.046285, 1.810815, 0.048413, 0.415971, -1.323613, 0.443432, -1.073345, -0.999223, -1.035280, 0.425671, 0.270831 },
  { 0.000000, 0.000000, 0.000000, 0.000000, 0.000000, -0.130173, 0.188216, -0.277865, -0.330743, 0.096585, 0.219595, 0.312053, -0.569695, -0.306187, -0.251927, -0.275370, -0.068281, -0.323897, -0.403634, -0.345118, -0.969404, -0.629975, 0.152527, -0.532929, 0.327405, 0.023179, 0.055588, 0.451109, 0.094952, 1.553086, 0.520453, -0.691429 },
  { 0.000000, 0.000000, 0.000000, 0.000000, 0.000000, 0.007032, -0.133469, -0.332309, -0.466747, -0.373131, -0.169150, -0.177293, -0.374646, 0.058807, -0.096093, -0.389071, -0.073694, -0.051642, 0.409244, -0.250795, -1.008110, 0.854293, -0.053254, -0.839019, -0.697595, 1.481808, 0.377091, -1.252566, -0.035768, -0.383863, 1.024508, 0.030717 },
  { 0.000000, 0.000000, 0.000000, 0.000000, 0.000000, -0.393512, 0.950358, 1.363649, 1.624482, 0.574780, 0.818217, -0.074638, -0.213891, -0.004637, -0.064117, 0.001912, 0.842655, -0.136391, 0.788033, -0.292181, 1.914946, 1.185358, 0.127748, 0.004812, 1.184096, 2.017463, 1.133927, 1.187085, 0.674932, 1.850238, -0.099288, 2.068425 },
  { 0.000000, 0.000000, 0.000000, 0.000000, 0.000000, -0.293027, -0.227654, -0.268370, 0.134929, 0.596846, 0.568816, 0.375994, -0.072841, 0.617229, 0.129875, -0.127744, 0.336984, 0.056495, 0.074078, -0.424959, 0.045015, 0.665682, -1.137091, 0.450852, -0.318542, 0.677194, 1.621036, -0.742288, -1.047962, 0.420067, 0.339473, -0.458901 },
  { 0.000000, 0.000000, 0.000000, 0.000000, 0.000000, 1.176135, 0.764907, 1.696392, 1.170437, 1.703289, 3.643704, 4.302597, 3.904990, 2.462518, 1.553602, 1.209733, 1.063500, 1.873715, 1.119092, -0.652770, 1.334992, 0.700745, -1.334172, -0.059767, 0.814324, 0.525744, -0.587904, -0.851789, -0.490409, 0.514080, -1.040120, -0.134129 },
  { 0.000000, 0.000000, 0.000000, 0.000000, 0.000000, -0.324089, -0.604256, -0.391749, -0.494521, -0.277288, -0.338267, -0.482527, -0.550545, -0.371868, -0.373980, -0.325170, -0.505322, -0.376925, -0.105340, -0.227388, -0.729679, -0.056320, -0.415996, 0.322863, -1.214576, -1.234085, 0.192195, -0.956804, 0.132231, 0.181218, -1.236365, -0.541419 },
  { 0.000000, 0.000000, 0.000000, 0.000000, 0.000000, -0.392226, -0.235916, -0.432287, -0.605980, -0.180364, -0.090752, -0.445637, -0.216869, -0.607682, -0.236083, -0.054794, -0.225966, -0.550735, -0.484132, -0.126298, -0.215362, -0.326873, -0.216330, 0.357271, -0.351398, -1.251141, 1.613032, 1.399585, 0.148913, -0.747727, 0.334946, 0.114732 },
  { 0.000000, 0.000000, 0.000000, 0.000000, 0.000000, -0.316137, -0.305732, -0.296901, -0.304684, -0.357789, -0.450514, -0.318977, -0.541786, -0.250452, -0.129045, -0.204500, -0.345866, -0.626586, -0.013566, 1.003373, -0.291846, -0.558984, 0.333414, -0.343113, 1.027748, -1.171937, -0.445006, 0.212358, 0.257793, 0.321273, 0.431249, -0.284394 },
  { 0.000000, 0.000000, 0.000000, 0.000000, 0.000000, 1.092642, 0.608868, -0.192312, 0.257034, -0.090457, 0.414973, -0.167953, -0.401333, 0.004990, -0.561600, 0.277170, -0.109683, 0.140845, -0.129137, -0.413753, 0.444901, 3.113411, -1.453838, 0.186568, 0.589948, -0.074380, 1.352945, 1.154494, 0.594527, -1.553527, 0.489674, 1.518360 },
  { 0.000000, 0.000000, 0.000000, 0.000000, 0.000000, 3.191004, 1.531266, 2.117176, 0.349394, 0.160572, -0.248709, 0.710585, -0.464629, -0.433515, 0.216120, -0.059627, 0.293330, -0.014769, 0.978448, 0.029273, 2.429174, -1.069054, 0.916310, 1.634489, 1.344609, 0.796987, -0.289241, 0.771977, 2.665011, -0.974104, 0.158640, 1.406873 },
  { 0.000000, 0.000000, 0.000000, 0.000000, 0.000000, 0.812607, 1.197523, -0.010874, 0.553379, 0.391516, 0.691549, 0.449536, -0.048710, 1.037096, 0.863297, 0.207414, 0.458194, 1.036664, 0.279032, 0.230008, -0.498748, 0.030968, 0.543992, 0.452212, -1.435395, -0.887785, -1.002551, -0.791773, 0.804931, -0.674142, -0.373819, -0.662754 },
  { 0.000000, 0.000000, 0.000000, 0.000000, 0.000000, 0.734744, 0.027214, 0.875898, 0.297900, -0.325713, -0.045313, -0.243126, -0.204544, -0.395765, -0.465668, -0.277061, -0.255593, -0.425103, -0.688875, -0.361099, 0.334334, 0.797051, 0.405799, -0.852604, 1.011954, 1.265327, 0.042767, -0.760369, 0.428134, 0.281010, 0.410931, -0.379598 },
  { 0.000000, 0.000000, 0.000000, 0.000000, 0.000000, -0.117882, -0.337472, -0.408112, -0.500992, -0.346892, -0.417542, -0.249538, -0.192599, -0.249467, 0.224240, 0.073606, -0.279758, -0.717613, -0.090620, -0.174258, 0.230648, -0.194909, 0.360884, -0.060142, -0.019622, 0.609445, -0.277549, 0.352235, 0.697023, -0.513729, -1.111052, -0.648997 },
  { 0.000000, 0.000000, 0.000000, 0.000000, 0.000000, -0.552892, -0.247240, -0.475548, -0.300582, -0.469668, -0.318104, -0.216321, -0.258817, -0.485266, -0.349317, -0.315736, 0.000794, 0.489430, -0.421959, 0.577268, 0.959851, 0.580300, 1.945701, 1.014117, -1.464177, 0.403087, 0.552058, -0.013009, 1.487129, -0.411100, 0.106857, 0.997753 },
  { 0.000000, 0.000000, 0.000000, 0.000000, 0.000000, -0.092158, -0.409992, -0.381667, -0.525407, -0.392532, -0.217556, -0.130521, -0.108724, -0.355457, -0.274091, 0.299189, -0.081467, -0.168483, -0.529583, 0.678051, 0.146819, -0.298947, 0.396564, 0.540023, 0.840016, -0.713344, -0.592134, 0.101620, 1.613233, -1.272697, -0.710469, -1.001854 },
  { 0.000000, 0.000000, 0.000000, 0.000000, 0.000000, -0.288992, 0.506933, 0.693958, 0.495267, 0.915973, 1.582495, 0.505146, 1.345163, 1.386825, 0.149986, 0.045828, 0.313323, 0.536521, -0.005346, -0.241803, 0.149984, -0.227443, -1.329109, -0.952729, -0.219375, 0.104824, 0.420103, -0.103728, 0.036530, 0.414233, -0.835723, 0.021961 },
  { 0.000000, 0.000000, 0.000000, 0.000000, 0.000000, -0.146422, 0.282322, 0.377750, 0.037531, -0.056272, 0.479904, 0.661123, -0.102455, -0.010408, -0.357407, -0.277785, 0.316896, -0.423982, -0.051342, -0.224476, -0.394220, -0.398203, -0.847685, -0.921071, 0.272029, -0.291055, -0.294069, 0.367590, 0.285487, 0.365459, -0.589280, 0.718046 },
  { 0.000000, 0.000000, 0.000000, 0.000000, 0.000000, -0.437019, -0.438845, -0.338737, -0.508679, -0.300746, -0.326190, -0.194156, -0.268202, -0.461925, -0.500985, -0.116887, 0.309612, 0.208607, -0.546279, 0.110254, -0.282133, 0.729765, -0.473117, -1.136999, 0.960548, 0.234252, -1.026671, -0.364560, -0.735814, 0.288668, -0.169729, 1.152672 },
  { 0.000000, 0.000000, 0.000000, 0.000000, 0.000000, -0.185910, -0.231559, -0.409296, -0.345034, -0.379423, 0.149779, -0.042183, 0.139250, -0.318576, -0.605094, 0.057692, 0.287848, -0.586229, 0.927591, 0.178166, -0.012229, 0.670093, 0.805589, 0.618634, -0.819236, 0.891041, -1.023809, -0.074521, -0.060371, -0.065020, -0.786305, 0.364434 },
  { 0.000000, 0.000000, 0.000000, 0.000000, 0.000000, -0.549246, -0.022295, 0.076836, 0.155755, 0.157357, 0.115661, 0.256089, 0.077466, 0.471966, 0.253455, -0.176646, -0.303062, -0.267875, -0.563929, -0.520094, -0.960564, -0.694765, -0.592069, -0.058188, -1.018037, -0.329136, -0.398829, 0.082435, -0.906840, -0.640482, 0.222649, -1.392200 },
  { 0.000000, 0.000000, 0.000000, 0.000000, 0.000000, -0.099296, -0.224970, 0.366883, 0.374066, 0.029622, -0.313734, -0.120516, -0.290499, 0.042187, -0.264636, -0.359034, -0.396386, -0.503982, -0.390177, 0.791367, 0.204314, -0.344906, 0.341257, -0.489633, -0.181721, 0.386385, -0.527573, -1.373592, 0.344233, -1.414227, -0.208351, -0.418816 },
  { 0.000000, 0.000000, 0.000000, 0.000000, 0.000000, -0.219955, -0.327061, 0.379701, 0.262856, 0.297409, 0.730438, 0.339014, 0.163576, 0.519975, 0.297407, 0.213546, -0.239112, -0.313910, -0.261833, 0.029519, 0.073783, -0.563902, -1.292013, -0.514271, 0.424485, -0.199688, -0.545971, -0.749936, -0.231068, -0.950859, -0.693122, -1.068451 },
  { 0.000000, 0.000000, 0.000000, 0.000000, 0.000000, -0.431868, -0.081646, -0.441192, -0.589293, -0.439427, -0.028912, 0.385972, -0.183490, 0.321913, 0.955276, 0.485787, 0.637370, 0.468370, 0.592482, -0.474423, -0.426099, -0.158814, -0.444381, 0.388396, -0.382537, -0.381998, 0.344825, 1.517824, -0.558217, 0.377959, 1.016638, 0.910389 },
  { 0.000000, 0.000000, 0.000000, 0.000000, 0.000000, 0.014910, -0.097990, -0.317623, -0.330003, -0.281174, -0.070311, -0.479077, -0.008275, -0.458229, -0.495596, -0.316601, -0.298869, -0.236401, 0.519955, -0.509119, 0.525463, -0.508882, 0.706459, -0.442394, -0.002880, -0.226917, -0.849648, 0.233391, 0.115473, -0.915000, -0.881945, -0.742325 },
  { 0.000000, 0.000000, 0.000000, 0.000000, 0.000000, 0.114247, -0.149222, 0.419592, -0.292390, -0.063801, 0.084788, -0.382941, 0.111433, -0.408559, -0.436843, -0.392351, -0.086160, 0.018504, -0.282227, -0.433420, 0.427155, -0.580098, 0.060139, -0.388574, -0.179065, 1.089163, 0.682420, 0.231398, -0.037064, -0.258619, 0.358545, -0.766160 },
  { 0.000000, 0.000000, 0.000000, 0.000000, 0.000000, 0.308969, -0.033880, -0.250618, -0.225402, -0.141456, -0.461920, 0.263175, 0.044615, -0.278955, -0.572510, 0.123818, 0.127571, 0.028967, 0.159551, -0.428698, -0.226447, 0.153954, 0.293384, 0.415758, -1.324137, -1.269532, 0.188889, 0.530959, -0.328496, -0.024039, -0.389699, -0.145079 },
  { 0.000000, 0.000000, 0.000000, 0.000000, 0.000000, -0.237346, -0.467715, -0.280029, -0.288738, -0.240139, -0.134945, -0.061782, -0.242249, -0.172492, -0.576245, -0.450449, 0.315552, -0.080837, -0.498489, -0.290841, -1.007591, -0.553299, -0.281169, 0.317635, -1.128419, 0.463211, -1.356692, -1.279240, -0.014350, 0.408306, 0.896119, -0.365155 },
  { 0.000000, 0.000000, 0.000000, 0.000000, 0.000000, -0.299219, -0.065113, -0.233970, -0.387122, -0.068275, -0.214914, -0.208155, -0.464561, -0.149306, -0.191791, -0.223802, -0.683563, 0.460330, 0.931538, 0.349586, -0.448984, 0.075069, -0.300541, -1.375519, -1.008463, 0.499853, 1.712585, -1.022857, 0.179770, 0.800799, -0.096570, 0.292380 },
  { 0.000000, 0.000000, 0.000000, 0.000000, 0.000000, 0.067573, -0.393911, -0.557503, -0.173199, -0.147842, -0.084053, -0.223673, -0.102431, -0.440867, -0.378325, -0.496021, 0.272563, 0.142425, 0.176875, 0.505070, 0.000694, -0.019055, 0.694099, -1.146550, 0.031601, 0.119419, 0.031686, -0.566110, -0.258470, -0.391479, -0.903717, -0.574812 },
  { 0.000000, 0.000000, 0.000000, 0.000000, 0.000000, -0.668369, -0.176777, -0.411856, -0.411419, -0.029707, 0.134996, -0.084693, -0.172460, 0.115700, 0.344319, 0.020496, -0.178533, -0.284684, -0.266277, -0.387500, -0.517583, -0.471502, -1.075604, -0.792215, -0.627389, 0.509561, 0.214028, -0.629097, -0.446728, -0.564675, -0.303432, -0.152098 },
  { 0.000000, 0.000000, 0.000000, 0.000000, 0.000000, 0.399855, 0.988810, 1.586908, 1.413102, 0.695256, 1.107007, 1.158168, 0.816915, -0.062608, -0.061479, -0.130619, 0.725785, 0.918259, -0.453542, 0.379316, -0.031882, -0.781759, -0.001458, -0.344629, -1.116421, -0.254177, -0.725236, -0.956865, 0.390063, 0.490841, -0.006772, 0.272706 },
  { 0.000000, 0.000000, 0.000000, 0.000000, 0.000000, -0.500618, -0.528538, -0.307008, -0.379437, -0.356773, -0.510809, -0.490960, -0.580302, -0.246255, -0.267459, -0.685766, 0.099196, -0.532251, -0.717479, 0.920529, -0.684558, -1.238077, -0.414348, 0.474277, 0.100890, -0.882119, -0.596098, 0.094274, -0.143651, -0.040809, -0.277461, -0.056707 },
  { 0.000000, 0.000000, 0.000000, 0.000000, 0.000000, -0.111768, -0.190978, -0.296733, -0.030272, 0.030047, -0.195925, 0.012856, -0.265070, -0.461542, -0.170037, -0.476075, -0.479178, -0.571399, -0.207277, 0.050734, -0.484951, 0.152407, 0.963008, 0.802032, -1.113363, -0.733001, -0.459128, 0.918280, -0.719478, 0.172618, -0.937729, -0.333401 },
  { 0.000000, 0.000000, 0.000000, 0.000000, 0.000000, -0.372554, -0.416283, -0.303971, -0.501202, -0.284740, 0.094140, -0.446934, -0.273348, -0.512036, -0.009767, 0.049639, -0.731278, -0.176743, -0.008232, 0.504206, -0.082029, 0.015352, 0.628897, 0.289215, 0.911726, -1.308728, -0.231783, 1.176991, 0.884627, -0.228209, -0.584795, 0.208989 },
  { 0.000000, 0.000000, 0.000000, 0.000000, 0.000000, -0.614476, -0.173534, -0.199317, -0.459044, -0.203764, -0.302404, -0.450815, -0.527560, -0.223855, -0.103545, -0.312237, 0.068983, 0.143883, 0.339561, 0.139941, -0.193950, 0.241422, -0.926285, -0.644675, -0.384357, -0.794410, 0.757158, 1.474956, -0.133604, 0.243639, 0.504403, -0.062087 },
  { 0.000000, 0.000000, 0.000000, 0.000000, 0.000000, 0.369163, -0.017288, -0.274709, -0.452379, -0.421151, -0.092568, -0.537628, 0.011770, -0.472743, -0.192032, -0.610966, 0.042906, -0.176802, -0.891885, -1.125548, 0.666248, -0.275073, -0.543867, 1.040816, 1.056153, -1.427150, -0.554073, -1.368344, 0.049294, -0.009293, -0.436127, -1.008902 },
  { 0.000000, 0.000000, 0.000000, 0.000000, 0.000000, -0.117148, -0.077021, -0.401067, -0.444219, -0.184415, -0.084635, -0.611560, -0.326882, -0.472853, -0.296906, -0.166519, 0.078141, -0.098298, -0.504955, -0.775157, 0.550640, 0.273517, -1.205121, 0.928064, -0.883742, 0.006011, -1.030897, -0.628290, 0.253487, -0.230642, -0.908566, -0.479018 },
  { 0.000000, 0.000000, 0.000000, 0.000000, 0.000000, -0.205993, -0.181757, 0.140170, -0.175689, -0.059671, -0.526180, -0.497399, -0.267595, 0.117628, -0.340524, -0.086067, 1.328289, 1.309741, 0.787995, 1.527996, 2.221903, 0.971988, 1.444390, 3.614981, 2.365919, 2.193650, 2.773213, 3.397683, 3.926223, 4.035206, 3.808258, 5.472886 },
  { 0.000000, 0.000000, 0.000000, 0.000000, 0.000000, 0.043042, 0.419746, -0.166338, 0.582558, 0.403523, 0.574112, 0.045151, -0.259221, 0.288767, 0.537286, -0.309248, -0.134756, -0.112350, -0.181512, 0.040636, -1.035493, 0.628346, -0.012894, -0.351725, -0.728080, -0.745486, 0.621526, -0.934482, 1.112879, 0.152432, 0.194001, -1.137101 },
  { 0.000000, 0.000000, 0.000000, 0.000000, 0.000000, -0.558716, -0.376593, 0.009532, 0.200190, 0.005794, 0.090247, -0.230756, -0.443561, 0.047994, -0.300404, 0.067561, 0.200956, -0.433810, 0.227421, -0.291742, -0.628353, 0.627391, -1.170449, -0.017732, -1.013477, -0.959902, 1.157926, -0.235104, -0.937498, -1.847150, -0.594243, -0.016768 },
  { 0.000000, 0.000000, 0.000000, 0.000000, 0.000000, -0.402688, -0.496200, -0.572309, -0.120120, 0.185168, -0.022728, 0.032119, -0.537196, 0.395578, 0.141191, -0.364264, -0.217437, -0.370670, -0.615941, 0.163872, -0.625274, -0.592452, -0.947071, 0.511821, -0.110405, 0.496049, 0.223560, 0.113144, -0.623450, 0.071893, -0.181197, -1.114724 },
  { 0.000000, 0.000000, 0.000000, 0.000000, 0.000000, -0.216483, -0.025740, -0.318481, -0.471978, -0.236349, -0.299132, -0.123574, -0.328696, -0.613435, 0.425077, -0.405076, 0.407635, -0.392593, 0.968141, 0.003224, 0.227639, 0.125972, 0.463004, 1.874875, -0.022759, -0.166041, -0.455919, 0.687323, 1.088611, -0.007204, -0.904166, 0.743102 },
  { 0.000000, 0.000000, 0.000000, 0.000000, 0.000000, -0.417724, -0.499109, -0.397920, -0.240757, -0.006757, -0.168920, -0.581567, -0.147009, -0.445204, -0.136416, -0.326888, 0.674161, 0.412170, 1.340465, 0.599519, 1.449075, 2.283664, -0.395774, 0.853332, 1.386883, 2.530275, 0.416373, 1.262304, 2.371691, 1.233154, 1.574798, 3.039469 },
  { 0.000000, 0.000000, 0.000000, 0.000000, 0.000000, -0.353722, -0.108672, -0.080242, -0.283928, -0.000797, -0.154211, -0.228548, -0.508821, -0.531929, -0.494848, -0.448791, -0.520373, -0.290237, 0.196014, -0.339182, -0.467995, -0.421079, -1.693549, -0.926781, -0.140944, -0.310394, 0.014858, 1.114349, -0.258951, -0.436778, -0.967572, -0.984271 },
  { 0.000000, 0.000000, 0.000000, 0.000000, 0.000000, -0.480470, -0.295634, -0.029937, -0.144508, -0.304256, -0.360492, -0.166708, -0.148312, -0.170636, -0.274448, -0.006653, -0.588283, 0.047339, -0.237186, -0.021691, -0.226306, -0.402866, 0.902121, -0.191335, 0.033072, -0.190558, -0.790138, 0.983349, -0.437707, -0.059361, -0.679860, 0.557733 },
  { 0.000000, 0.000000, 0.000000, 0.000000, 0.000000, 0.000456, -0.311428, -0.440780, -0.158739, -0.071499, -0.483242, 0.058195, -0.440827, -0.124132, -0.010964, -0.054565, -0.612788, 0.111069, -0.171678, -0.142789, -0.008760, 0.749262, -0.106077, 0.268869, 0.393071, -0.547984, -0.537661, 0.862594, 0.682044, -0.341268, 0.553255, -1.448947 },
  { 0.000000, 0.000000, 0.000000, 0.000000, 0.000000, -0.423759, 0.078192, 0.146731, 0.235202, 0.079235, 0.283067, -0.375400, -0.000764, -0.428014, -0.454212, 0.245297, 0.081860, -0.102297, -0.103824, -0.076889, -0.370731, 0.086945, 0.610494, 0.623295, 0.334796, -1.306293, -1.217544, 0.070000, -0.011687, -0.013920, 0.123504, 1.331552 },
  { 0.000000, 0.000000, 0.000000, 0.000000, 0.000000, 0.011616, 0.090799, -0.282165, 0.004742, 0.266098, 0.492583, -0.232181, -0.003120, -0.387055, -0.187476, -0.408371, 0.430823, -0.499110, -0.565248, -0.069087, 0.245373, -0.553456, -0.931415, -0.961145, -0.277581, -0.935907, 0.408016, -1.155396, -0.931974, -0.669332, -1.106417, -0.209695 },
  { 0.000000, 0.000000, 0.000000, 0.000000, 0.000000, -0.581402, 0.054577, 0.203186, 0.166188, 0.102585, -0.146602, -0.199298, -0.144660, -0.256995, 0.251309, -0.166239, 0.838223, -0.430699, -0.579878, -0.006477, 0.428176, -1.080537, -0.936292, 0.824161, 1.103908, 0.841663, -0.277720, 0.577328, 0.395087, 1.398623, 0.188231, -0.999688 },
  { 0.000000, 0.000000, 0.000000, 0.000000, 0.000000, -0.396420, 0.042448, 0.433827, 0.517198, -0.123502, -0.319504, -0.185836, -0.160294, 0.184076, -0.178630, -0.461778, 0.438646, -0.645715, -0.132377, 0.551471, 0.164696, -1.479833, -0.427855, -0.412225, 0.374640, 0.034942, -1.566069, 0.768101, -1.170240, 1.138360, -0.083570, -0.427338 },
  { 0.000000, 0.000000, 0.000000, 0.000000, 0.000000, 0.123636, -0.089660, 0.460434, 1.392824, 0.557845, 0.180652, 0.410177, 0.190886, 0.141678, 0.041797, -0.223094, 0.101662, -0.227176, 0.556227, 1.049434, -0.076085, -0.548947, 0.164127, -0.598640, 0.345396, 0.191054, 1.103801, -0.273847, -0.477724, -0.948273, 0.224982, -0.210236 },
  { 0.000000, 0.000000, 0.000000, 0.000000, 0.000000, -0.270660, -0.279159, 0.161800, -0.026739, -0.477196, -0.209757, -0.305907, -0.535994, -0.030886, -0.085383, -0.157275, 0.519291, 0.243023, -0.246493, -0.130188, 1.252782, 0.999633, -0.081917, -0.246954, 0.035766, -0.104543, 0.952583, 0.026184, -0.633112, -0.023483, 0.748093, -0.359727 },
  { 0.000000, 0.000000, 0.000000, 0.000000, 0.000000, -0.262272, 0.274584, 0.175044, 0.257526, -0.282963, -0.137179, 0.442690, -0.521939, -0.424574, -0.343177, 0.258356, -0.200383, 0.655851, -0.643686, 1.170387, 0.086545, -0.449545, -1.031304, 2.282670, -1.035291, 2.867268, -0.339670, 2.852571, 0.844443, 4.021166, 0.190293, 2.289632 },
  { 0.000000, 0.000000, 0.000000, 0.000000, 0.000000, -0.329995, 0.686196, 0.832928, 0.219541, -0.200083, 0.332167, 0.358471, 0.684325, 0.123415, 0.647577, 0.406475, -0.686372, 0.751743, -0.541614, -0.575507, -0.341367, 1.239206, 0.940996, -0.584058, 1.014725, -0.879078, 1.123516, -1.415965, -0.530173, -0.629712, 1.385325, -0.743622 },
  { 0.000000, 0.000000, 0.000000, 0.000000, 0.000000, 0.035786, 0.039519, 0.045447, -0.283180, -0.072177, 0.128763, 0.272975, -0.216287, 0.553421, 0.173527, 0.566216, -0.463566, 1.387564, 0.906752, 0.227841, 0.245073, -0.157325, 2.356870, 0.587879, 1.508427, -0.222708, 2.106811, 1.146831, 3.154280, -0.739816, 2.731221, 0.171726 },
  { 0.000000, 0.000000, 0.000000, 0.000000, 0.000000, -0.327838, 0.202097, -0.610604, 0.149343, -0.308432, -0.472201, -0.096054, -0.432388, 0.219126, -0.135462, -0.363192, 0.364758, -0.333582, 0.580201, -0.177791, -0.191868, 1.703157, -0.613596, -0.998971, 0.439188, 0.402857, 1.427656, -0.515089, 0.645230, -0.091405, 2.260028, -0.324516 },
  { 0.000000, 0.000000, 0.000000, 0.000000, 0.000000, -0.348419, -0.439421, -0.193968, -0.491972, -0.381543, -0.207870, -0.192334, -0.330346, -0.037216, -0.282584, -0.485470, -0.256154, 0.031410, -0.830068, 0.312456, 0.217347, -1.315730, -0.448134, 0.086404, -0.744012, -1.262147, 0.328064, -0.399248, -1.132532, 0.260955, 0.638187, -0.406504 },
  { 0.000000, 0.000000, 0.000000, 0.000000, 0.000000, -0.291648, -0.314632, -0.468103, -0.423297, -0.373880, -0.396195, -0.252435, -0.274828, -0.234578, 0.097381, -0.113090, -0.151166, -0.327910, -0.476719, 0.436634, -0.201284, 0.049705, 0.634214, -0.512600, 0.695712, -0.542942, -0.720549, -0.078909, -1.278520, 0.018157, 0.078449, -1.437563 },
  { 0.000000, 0.000000, 0.000000, 0.000000, 0.000000, -0.281160, -0.280228, -0.482673, -0.279484, -0.424902, -0.468449, -0.480997, -0.543532, -0.541886, -0.281274, -0.447740, -0.078604, -0.487383, -0.439236, -0.523572, -0.565256, -0.022316, -0.294033, -0.240784, 0.183730, -0.820704, -1.255221, -0.044381, -0.283597, -0.125712, 0.763208, -0.427254 },
  { 0.000000, 0.000000, 0.000000, 0.000000, 0.000000, -0.360941, -0.144564, 0.252188, -0.061577, -0.166508, -0.566852, -0.379155, -0.167849, -0.319954, -0.434650, -0.577900, -0.163643, -0.197391, 0.019657, 0.913549, -0.660156, -0.561203, -0.464007, 0.231863, -0.848812, 0.205535, 1.157530, -0.021363, -1.050596, 0.678892, -0.375149, 0.676385 },
  { 0.000000, 0.000000, 0.000000, 0.000000, 0.000000, 0.328078, 0.407310, 0.334246, -0.460999, -0.120172, -0.002373, 0.355013, 0.386865, 0.582782, 0.098141, 0.359197, -0.720952, 0.088445, 1.732451, -0.047486, 1.674494, 1.572102, 0.459298, -0.420894, 0.644583, -0.455835, 1.007423, 0.084928, 1.945656, -0.388475, -0.444350, 1.329145 },
  { 0.000000, 0.000000, 0.000000, 0.000000, 0.000000, 0.385315, 0.362275, 2.291486, 2.755888, 0.848684, 0.115230, 1.446560, 1.641820, 0.129917, 0.471415, 1.276117, 0.818403, 0.102712, -0.830002, 0.227705, 0.051243, -0.317386, -0.362664, -0.382619, 0.255562, 0.099958, 0.751330, -0.973597, -0.282794, -0.864751, -0.101474, -0.486703 },
  { 0.000000, 0.000000, 0.000000, 0.000000, 0.000000, -0.446660, 0.184665, -0.467438, -0.292797, -0.230173, -0.317512, -0.370659, -0.222410, -0.487829, -0.305775, -0.231517, -0.030932, -0.203174, -0.008150, 0.363945, -0.555540, 0.773266, 0.217118, 0.165345, -0.233356, 1.275240, 0.338616, 0.431289, 0.575160, 0.824420, 0.606457, -0.897949 },
  { 0.000000, 0.000000, 0.000000, 0.000000, 0.000000, 0.352731, 0.066404, -0.075907, -0.264501, -0.057562, -0.620656, 0.194989, -0.019044, -0.431418, 0.084011, -0.004871, -0.533231, -0.557950, -0.432979, 0.075016, 0.484374, -0.484456, -0.261348, 0.647716, 0.353872, -0.194866, 0.090570, -0.637705, -0.452749, -0.372349, -0.901907, 0.335506 },
  { 0.000000, 0.000000, 0.000000, 0.000000, 0.000000, 0.352731, 0.066404, -0.075907, -0.264501, -0.057562, -0.620656, 0.194989, -0.019044, -0.431418, 0.084011, -0.004871, -0.533231, -0.557950, -0.432979, 0.075016, 0.484374, -0.484456, -0.261348, 0.647716, 0.353872, -0.194866, 0.090570, -0.637705, -0.452749, -0.372349, -0.901907, 0.335506 },
  { 0.000000, 0.000000, 0.000000, 0.000000, 0.000000, -0.009731, -0.364566, -0.472281, -0.295924, -0.221986, -0.540167, -0.240301, -0.199168, -0.504187, -0.034875, -0.381746, 0.162435, -0.667177, -0.843531, 0.609437, -0.554817, 0.312962, -0.153306, -0.476966, 1.168631, -0.725736, 0.423097, -0.160606, -0.693827, 0.965523, -1.534655, -0.509204 },
  { 0.000000, 0.000000, 0.000000, 0.000000, 0.000000, -0.441944, -0.489141, -0.379359, -0.453976, -0.263084, -0.317586, -0.532120, -0.483426, -0.334653, 0.059921, 0.083706, -0.151158, -0.231175, -0.827930, -0.558140, -0.502568, -0.431386, -0.575514, -0.267789, -0.153175, -0.566516, 0.336605, 0.150729, -0.185111, 0.363156, 0.380674, -0.173179 },
  { 0.000000, 0.000000, 0.000000, 0.000000, 0.000000, -0.525208, -0.312518, -0.557373, -0.345806, -0.255852, -0.219393, -0.348284, -0.531826, -0.158378, 0.110670, -0.351423, 0.110731, -0.221955, -0.725535, -0.692527, 0.061846, 0.833544, 1.124057, 0.170841, 0.129623, -0.143848, -1.608605, -0.298985, -0.236089, -1.058593, 0.070031, 0.200823 },
  { 0.000000, 0.000000, 0.000000, 0.000000, 0.000000, -0.177990, 0.180660, 0.229610, -0.259397, 0.217686, 0.325201, -0.382818, 0.042294, -0.239017, 0.331916, 0.638624, 0.103412, 0.313242, 1.241875, 1.824768, 1.179767, -0.822404, -0.082885, -0.409385, 0.574758, -0.383336, 1.073356, -0.729208, -0.705512, -0.190876, 1.130567, -0.820998 },
  { 0.000000, 0.000000, 0.000000, 0.000000, 0.000000, -0.094244, -0.597554, -0.422234, 0.086080, 0.127756, 0.169481, -0.416474, 0.234822, -0.163880, 0.436850, -0.096572, 0.040387, 0.633715, 0.272644, 1.095690, 0.647547, 0.716722, 0.439065, 1.643043, 2.490435, 0.856410, -0.866862, 2.404017, -0.366359, 1.209692, -0.277227, 0.415190 },
  { 0.000000, 0.000000, 0.000000, 0.000000, 0.000000, 0.167437, -0.171278, 0.856649, 1.213807, 0.078819, 0.435591, 1.223534, 0.795830, -0.478210, 0.154720, -0.256064, -0.297895, -0.481809, -0.646311, -0.147247, -0.638231, 0.782804, 2.546179, 1.399199, 0.981215, -0.777282, -1.296317, -0.325640, -0.362131, -0.198647, -0.307538, 0.161950 },
  { 0.000000, 0.000000, 0.000000, 0.000000, 0.000000, 0.470567, 0.663895, 0.245867, -0.230846, -0.224103, 0.621423, 0.359075, 0.736667, 1.024542, 0.334750, 0.296892, 0.214537, 0.412525, -0.508695, -0.174725, 0.434046, -1.465632, -1.532269, -0.217108, -0.874784, 0.016679, -0.315185, 1.230169, 1.336831, -1.304625, -0.141327, 0.074173 },
  { 0.000000, 0.000000, 0.000000, 0.000000, 0.000000, -0.126817, 0.678180, 0.410974, 0.651160, 0.214293, 0.129248, -0.265440, -0.024861, -0.091903, 0.353964, 0.670747, 0.535031, 0.194683, 0.716124, -0.032152, -0.405073, -0.700085, 1.117868, 1.461759, -0.729842, -1.286721, 1.256903, 1.007431, -0.222905, -0.804528, -1.538005, 1.184968 },
  { 0.000000, 0.000000, 0.000000, 0.000000, 0.000000, 0.013029, -0.402499, -0.539942, -0.609964, -0.316772, -0.398430, -0.445523, -0.529485, -0.054565, -0.183766, -0.310661, -0.469236, -0.034998, -0.154007, 0.215486, -0.569481, -0.348276, 0.351063, 0.494325, -0.781324, 0.508067, -1.103141, -0.910168, -0.020521, 0.512228, 1.975095, 1.175596 },
  { 0.000000, 0.000000, 0.000000, 0.000000, 0.000000, 1.130594, -0.248813, 0.400886, 0.053202, 0.465908, 0.523089, 0.353055, 0.529669, -0.210013, -0.510809, -0.109801, 0.173807, 0.293840, -0.588605, -0.026192, -0.192456, 1.159372, 1.049653, -0.599766, -1.226684, 0.788796, 0.979298, -0.930516, -1.252661, 0.400695, -0.302064, 0.244128 },
  { 0.000000, 0.000000, 0.000000, 0.000000, 0.000000, 0.260741, 0.090616, -0.233462, -0.352613, 0.104894, -0.132870, -0.351185, 0.211506, -0.388601, -0.510642, 0.516367, -0.310306, -0.432147, 0.398163, -0.404237, 0.004758, -0.736136, -1.729598, -0.072712, -0.411992, 1.289911, -0.976586, 0.382378, -0.633879, -1.585991, 0.089635, 0.140092 },
  { 0.000000, 0.000000, 0.000000, 0.000000, 0.000000, 1.159006, 0.682596, 0.290504, 0.031967, -0.003563, 0.179792, 0.446870, 1.149113, 0.455669, -0.084561, -0.059195, 1.041104, -0.233717, 0.395005, -0.418177, -0.305337, 0.523087, -0.277573, -1.005551, -0.981328, 0.893511, -0.576564, -0.278386, -0.857710, -0.107942, 0.177473, 0.341426 },
  { 0.000000, 0.000000, 0.000000, 0.000000, 0.000000, 0.765543, -0.493474, 0.893210, 1.505574, 1.319435, 1.828445, -0.155259, 0.426814, 0.167224, 1.156281, 0.807278, 1.027932, 0.691574, 1.521585, 0.857430, 2.351154, -0.406293, -1.223903, -0.595860, 0.298800, -1.170821, -0.473514, 0.215995, 0.130111, 0.112110, -1.003734, -0.469299 },
  { 0.000000, 0.000000, 0.000000, 0.000000, 0.000000, 2.025332, 2.513372, 2.450267, 0.812518, 0.452656, 2.361047, 1.882036, 1.496166, 1.632980, 0.266822, 0.022944, 0.152227, 2.294985, 1.049905, 0.235376, 0.578260, 0.523725, 2.265599, -0.320070, 0.917451, 3.009478, -0.522313, 0.382390, -1.034317, 0.569883, 1.450464, -0.635999 },
  { 0.000000, 0.000000, 0.000000, 0.000000, 0.000000, -0.100177, -0.347210, 0.042939, -0.228290, -0.385337, -0.429951, -0.270885, -0.017855, -0.393867, -0.299364, -0.015992, -0.624820, 0.144651, -0.440592, 0.292106, -0.120198, -0.077975, 0.537176, -0.561299, -0.584299, -0.109735, -0.206540, 0.527152, 0.256467, -0.536624, -0.680163, -0.582399 },
  { 0.000000, 0.000000, 0.000000, 0.000000, 0.000000, 0.545899, 0.226888, -0.297942, -0.052731, -0.337222, -0.070580, -0.438647, -0.105739, -0.072440, -0.386401, -0.049948, -0.126255, -0.296366, 0.648475, 0.112099, 0.039831, 0.393788, -1.166864, 0.409426, 0.252941, -0.704959, -0.046242, -0.441256, 0.296968, -1.339908, 0.739973, -0.092177 },
  { 0.000000, 0.000000, 0.000000, 0.000000, 0.000000, -0.145082, -0.210312, -0.179649, -0.329607, -0.218539, -0.477494, -0.241228, -0.102476, -0.209304, -0.276245, -0.415389, -0.433583, -0.129496, -0.369227, -0.258133, -0.593620, -1.352461, -0.182826, 0.446827, -0.299295, -0.335464, -1.424408, -0.013536, 0.418469, -0.734888, 0.144461, -0.412612 },
  { 0.000000, 0.000000, 0.000000, 0.000000, 0.000000, 0.515762, -0.052494, -0.337822, -0.279148, -0.221578, -0.157700, -0.376092, -0.486974, -0.541393, -0.399125, -0.294488, -0.500363, -0.593288, -0.327760, 0.074992, -0.776844, 0.580877, 1.239324, 0.149130, 0.023721, -0.945160, -0.624763, 0.149886, -0.469191, -0.580510, -0.146930, 0.703273 },
  { 0.000000, 0.000000, 0.000000, 0.000000, 0.000000, -0.262775, 0.656689, 1.181344, 1.107516, 0.140269, 0.355092, -0.023004, -0.117053, -0.112624, 0.229775, 0.102552, -0.251558, -0.121503, -0.122143, 0.209141, -0.481802, -0.031028, -0.136487, 0.418273, -0.730667, -0.922168, -0.071023, -0.890340, -0.094671, 0.555226, -0.722851, -0.311994 },
  { 0.000000, 0.000000, 0.000000, 0.000000, 0.000000, -0.451482, 0.875566, 1.136719, 0.547728, 0.007527, -0.368029, -0.052719, 0.660335, 0.196804, -0.194811, -0.359465, 0.052170, -0.130682, 0.944838, 0.083996, -0.790982, 0.657592, 1.086568, 2.015401, -0.948922, 0.169955, 0.138095, 1.115873, -0.722936, 0.577095, -0.315136, -0.553339 },
  { 0.000000, 0.000000, 0.000000, 0.000000, 0.000000, 0.190356, 0.796310, -0.159088, -0.102648, -0.320095, -0.226106, -0.079577, -0.152431, 0.085443, 0.799322, -0.268817, 0.421822, -0.502196, -0.908002, 0.897856, 0.065056, -0.739271, -0.270198, 0.173000, 0.575773, 0.365019, -1.586631, 0.252032, 0.146042, 1.060375, -0.045831, 2.510755 },
  { 0.000000, 0.000000, 0.000000, 0.000000, 0.000000, -0.226738, -0.465449, -0.539442, -0.352726, -0.365556, -0.424526, -0.353791, 0.237874, -0.512448, 0.012658, -0.469070, 0.270835, -0.216147, 0.744111, -0.115717, 0.639141, -1.078419, -0.952214, 0.101864, -0.207973, 0.969580, -1.473270, 0.960135, -0.308226, -0.138583, -0.843803, 1.056453 },
  { 0.000000, 0.000000, 0.000000, 0.000000, 0.000000, -0.550676, -0.273683, -0.633812, -0.389943, -0.302486, -0.341191, -0.223854, -0.272163, 0.002259, -0.094195, -0.263425, 0.037884, -0.512832, -0.319597, -0.951461, -1.000833, 0.974750, 1.251146, 0.090984, -0.214664, -0.397448, -0.659835, -1.346654, -1.062737, -0.322891, 0.200641, -0.713744 },
  { 0.000000, 0.000000, 0.000000, 0.000000, 0.000000, -0.525907, -0.627194, -0.527391, -0.490197, -0.331070, 0.049134, -0.302361, -0.310889, -0.245944, -0.267274, 0.019383, -0.792863, 0.181456, 0.204757, -0.255051, 0.005835, 0.699004, -0.310307, -1.103853, 0.613125, 1.025078, -0.296038, 0.878518, -0.187286, -0.467003, -0.632125, -0.021925 },
  { 0.000000, 0.000000, 0.000000, 0.000000, 0.000000, 0.923748, 0.367321, 1.099975, 1.329912, -0.194357, -0.241172, -0.314255, 0.036087, 0.734318, 0.388286, 0.384116, -0.522110, 0.586190, 0.417619, -0.916713, 0.045967, -0.674713, -0.402288, 0.409555, -0.416890, -1.050391, 0.350687, 0.303289, -0.331731, -0.783512, -0.577200, -0.707009 },
  { 0.000000, 0.000000, 0.000000, 0.000000, 0.000000, -0.010166, 0.003917, -0.110665, 0.005775, -0.088489, -0.009788, 0.237975, 0.825759, -0.015005, -0.349059, -0.391501, -0.125494, 0.278987, -0.020656, -0.653298, 0.315945, 1.937900, -0.951903, -0.506333, 0.256661, -0.014475, 0.884429, -1.124995, -0.665218, -0.874582, -0.621730, -1.192006 },
  { 0.000000, 0.000000, 0.000000, 0.000000, 0.000000, 0.691150, -0.517090, 0.078361, -0.136605, 0.350154, 0.215743, 0.470723, 0.008418, -0.582208, -0.170804, 0.111298, 0.717014, -0.577831, -0.250071, -0.433128, -0.201804, 0.978439, 1.580343, 0.912836, -0.155531, -0.889085, -0.051480, -0.888680, -0.847509, -1.316246, -0.789142, 0.934234 },
  { 0.000000, 0.000000, 0.000000, 0.000000, 0.000000, 0.527172, 0.654276, 0.307309, 0.331240, -0.061247, 0.029210, -0.484531, 0.096992, -0.051387, -0.209632, 0.001926, 0.558831, 0.161939, -0.239327, 0.043721, 0.043660, -0.280512, 0.918940, 0.866439, 0.182232, 0.239264, -0.210220, 0.451536, -0.395861, 0.578686, -0.414254, -0.486698 },
  { 0.000000, 0.000000, 0.000000, 0.000000, 0.000000, 0.314906, -0.018770, 0.041920, 0.063729, -0.210430, -0.071244, 0.394152, 0.565384, 0.230922, 0.011900, 0.077418, -0.509865, 0.233160, -0.021658, 0.545332, -0.120752, -1.244421, -0.242669, -0.068731, -0.399623, 0.648776, -1.114054, -0.782142, -0.751698, 0.296444, 0.036943, 0.223221 },
  { 0.000000, 0.000000, 0.000000, 0.000000, 0.000000, -0.055867, 0.093114, 0.110908, 0.630662, 0.234652, -0.059239, -0.258338, -0.373199, -0.301617, -0.272987, -0.171610, -0.317200, -0.150036, -0.433816, -0.653893, 0.091932, 1.028637, 0.597608, -1.180953, 0.249093, -0.801132, -1.058609, 0.516107, -0.228466, -0.290948, 0.658889, -0.168018 },
  { 0.000000, 0.000000, 0.000000, 0.000000, 0.000000, -0.040763, -0.406060, -0.350093, -0.322514, -0.135808, -0.255021, -0.350651, -0.454942, -0.118775, 0.022219, -0.164124, 0.239496, -0.206741, -0.510824, -0.006585, -0.043206, 0.816566, -1.042352, -0.407560, -0.420589, 0.765846, 0.343137, 0.252594, 0.081710, 0.281735, -0.035887, -0.330230 },
  { 0.000000, 0.000000, 0.000000, 0.000000, 0.000000, -0.156126, -0.071209, -0.474436, 0.063153, -0.029606, -0.003719, -0.311365, -0.425932, -0.203418, -0.156141, -0.187377, 0.302191, -0.246542, -0.550978, 1.070415, 0.552043, -0.172369, 0.472879, 1.074386, 0.489010, 0.684092, -0.389894, 1.405244, 0.816436, 0.552961, -1.023184, 1.628729 },
  { 0.000000, 0.000000, 0.000000, 0.000000, 0.000000, -0.260248, -0.397659, -0.487112, -0.532242, -0.351141, -0.373547, -0.494463, -0.430931, -0.224729, -0.398856, 0.240127, -0.428040, -0.778096, -0.575755, 0.481381, -0.126049, -0.076571, -0.508294, 1.109284, 0.726276, -0.806571, 1.206442, -0.209246, -1.051093, -0.558824, 0.253545, -0.160654 },
  { 0.000000, 0.000000, 0.000000, 0.000000, 0.000000, -0.129775, -0.344882, -0.371655, -0.528334, -0.239641, -0.594666, -0.230332, -0.404698, -0.516283, -0.584620, -0.399774, -0.404998, -0.708444, -0.007517, 0.057049, -0.892278, -0.949739, -0.065059, -0.976620, -0.991126, -1.656225, -0.063785, -0.373885, 1.452017, 0.749138, -0.066145, -0.769792 },
  { 0.000000, 0.000000, 0.000000, 0.000000, 0.000000, -0.204004, -0.216098, -0.546229, -0.539625, -0.334966, -0.343500, -0.417070, -0.487155, -0.375364, -0.164683, -0.244078, -0.464578, -0.468681, 0.382359, 0.405567, -0.150406, 0.374419, 0.432260, 1.650341, -0.530800, 1.369567, 1.701644, 1.119686, 0.306049, 0.859186, 0.863621, 0.447810 },
  { 0.000000, 0.000000, 0.000000, 0.000000, 0.000000, -0.353230, -0.447198, -0.379642, -0.595333, -0.435811, -0.468038, -0.126615, -0.048727, -0.256560, -0.225427, 0.047902, 0.218829, -0.404918, 0.367037, 0.151294, -0.011391, 0.605386, -0.118174, -0.382341, 1.069835, 0.167356, -0.716377, -1.359763, -0.809102, -0.114898, -1.073907, -0.707863 },
  { 0.000000, 0.000000, 0.000000, 0.000000, 0.000000, -0.319323, -0.426773, -0.560570, -0.309137, -0.396871, -0.344702, -0.500616, -0.263469, -0.281257, -0.056556, -0.441627, 0.304547, -0.339435, -0.326559, 0.310200, -0.448747, 0.635747, -0.464186, 1.461793, 0.357918, -0.291511, -0.343980, 0.222430, 1.944938, -0.204128, -0.312419, 0.163479 },
  { 0.000000, 0.000000, 0.000000, 0.000000, 0.000000, -0.149268, -0.414117, -0.532394, -0.387511, -0.440644, -0.494815, -0.381226, -0.381518, -0.318141, 0.227984, -0.281439, -0.136443, -0.212267, -0.394050, 0.004863, -0.190063, -1.096474, -0.054974, -0.974053, 0.044817, 0.437950, 0.268783, 1.615335, 1.200167, -0.310572, -0.582599, -0.126539 },
  { 0.000000, 0.000000, 0.000000, 0.000000, 0.000000, -0.301833, -0.604267, -0.491734, -0.314621, -0.358948, -0.524099, -0.146625, -0.422281, -0.265767, -0.155565, -0.324182, -0.050736, -0.165703, -0.051995, -0.001080, 0.350459, -0.632834, 0.653578, -0.422966, 0.717999, -0.469094, -0.122133, -1.303911, 1.329661, -0.224380, -0.984231, 0.286530 },
  { 0.000000, 0.000000, 0.000000, 0.000000, 0.000000, -0.262801, -0.423159, -0.412407, -0.553046, -0.474831, -0.458171, -0.550992, -0.206623, -0.429897, -0.256393, -0.088203, -0.543384, -0.311283, 0.243774, 0.149549, -0.607128, 0.575434, 0.934162, 0.062878, -0.205708, -0.328143, 1.387950, 0.852156, -0.219568, -0.019576, -0.736562, -0.634327 },
  { 0.000000, 0.000000, 0.000000, 0.000000, 0.000000, -0.259548, -0.407461, -0.506296, -0.351649, -0.446587, -0.596461, -0.605259, -0.183835, -0.433083, -0.523000, -0.404124, -0.118400, 0.095000, -0.865094, -0.638164, -0.433973, 1.348814, -0.681394, -1.386881, -0.231970, 0.497742, -0.684260, -0.245934, 1.401768, -0.129680, -0.768079, -1.028684 },
  { 0.000000, 0.000000, 0.000000, 0.000000, 0.000000, -0.562816, -0.408285, -0.447753, -0.449459, -0.341024, -0.548316, -0.236314, -0.414480, -0.545144, -0.106053, -0.437971, -0.315083, -0.718383, -0.237164, -0.258827, -0.766260, -0.251045, 0.698374, 0.228243, 0.498883, 0.524952, 0.158155, -0.051794, -0.466391, 0.794948, 0.256541, 0.387462 },
  { 0.000000, 0.000000, 0.000000, 0.000000, 0.000000, -0.190520, -0.599899, -0.511577, -0.577449, -0.324798, -0.211080, -0.394448, -0.412561, -0.219860, -0.102026, -0.525010, -0.264746, -0.195168, 0.084028, 0.244134, -0.378999, -0.685605, -0.728830, -0.296954, -0.385384, -0.226712, -0.702690, -0.623317, -0.625609, 1.050765, -0.349827, 0.134994 },
  { 0.000000, 0.000000, 0.000000, 0.000000, 0.000000, -0.612923, -0.237363, -0.375055, -0.392308, -0.439070, -0.436545, -0.462380, -0.328452, -0.433715, -0.020172, -0.268136, -0.443670, -0.286325, 0.020717, -0.005589, -0.319876, -0.548116, 0.373718, 0.609699, -0.339728, -0.284958, -0.414694, -0.035094, 0.778986, -0.086671, -1.233105, -0.618852 },
  { 0.000000, 0.000000, 0.000000, 0.000000, 0.000000, -0.311745, -0.583695, -0.543877, -0.371271, -0.385760, -0.336446, -0.439736, -0.194604, -0.390055, -0.517609, -0.276602, -0.078603, -0.630787, -0.234340, -0.884801, -0.217662, 0.367344, -1.286174, -0.220912, -0.859102, -0.093631, -1.090389, -1.321626, -0.207701, 0.519580, -0.440074, -0.682562 },
  { 0.000000, 0.000000, 0.000000, 0.000000, 0.000000, -0.606853, -0.486225, -0.363621, -0.317501, -0.203317, -0.451121, -0.388639, -0.233572, 0.632987, -0.200112, -0.090705, -0.024728, 0.463293, 0.606248, -0.988639, 0.831751, 1.113328, 1.565339, 0.127042, -0.326233, 3.293341, 1.996936, -0.410073, 1.022907, 0.995720, 1.798513, 1.080032 },
  { 0.000000, 0.000000, 0.000000, 0.000000, 0.000000, -0.527816, -0.239654, -0.442822, -0.297860, -0.358417, -0.295470, -0.498952, -0.188919, -0.301323, -0.260374, -0.339010, 0.046041, -0.427726, -0.116224, 0.273961, -0.470773, 0.782302, -0.509010, 0.013164, 0.719922, -1.109857, -0.470841, 1.069992, -0.451940, -0.134045, 0.202742, -0.174955 },
  { 0.000000, 0.000000, 0.000000, 0.000000, 0.000000, -0.355051, -0.373236, -0.242436, -0.030023, -0.205130, -0.029766, -0.588571, -0.339521, -0.511131, -0.286575, 0.033717, -0.237742, -0.590288, -0.389435, -0.412286, 0.097918, 0.494061, 1.550383, -0.749795, 1.252607, -0.389263, -0.784065, -0.071081, 0.660305, 0.316205, -0.503739, -0.376694 },
  { 0.000000, 0.000000, 0.000000, 0.000000, 0.000000, -0.252837, -0.110008, -0.061639, -0.192736, -0.123326, -0.023030, -0.389744, -0.596672, -0.396332, -0.084821, -0.496610, -0.071213, -0.613749, -0.397160, -0.198597, -0.089047, -0.213673, -1.546485, -0.291963, 0.690076, -0.147513, -0.992247, -0.290302, -0.166028, 0.395336, -0.486325, -0.930163 },
  { 0.000000, 0.000000, 0.000000, 0.000000, 0.000000, -0.702733, -0.440127, -0.492224, -0.454466, -0.327533, 0.042889, -0.043185, -0.362938, -0.191774, -0.508465, -0.654783, -0.249597, -0.308373, 0.440927, -0.153067, -0.667501, -1.033080, -0.982108, -0.278524, 0.320562, -0.752681, -0.580686, 0.525458, 1.079400, -0.323714, -0.391975, -0.637676 },
  { 0.000000, 0.000000, 0.000000, 0.000000, 0.000000, -0.814245, -0.650889, -0.674773, -0.701006, -0.526690, -0.640885, -0.665267, -0.682180, -0.666716, -0.707314, -0.699077, -0.858499, -0.828774, -0.992257, -1.260413, -1.238724, -1.653271, -1.854637, -1.439748, -1.651776, -1.800946, -1.752509, -1.717187, -1.545174, -1.878851, -1.629262, -1.635390 },
  { 0.000000, 0.000000, 0.000000, 0.000000, 0.000000, 1.767360, 0.395152, 1.360692, 2.008462, -0.159210, -0.343194, 0.612203, 1.471101, 2.184423, -0.325245, 1.115794, 0.935315, 0.910996, 0.283050, 0.326911, -0.322569, 0.160994, 0.800019, -0.126275, 0.269824, 0.332089, 0.655339, 0.699572, -0.354924, 1.083527, 0.200635, -1.433539 },
  { 0.000000, 0.000000, 0.000000, 0.000000, 0.000000, 0.950022, 0.055763, -0.099617, 1.324117, 0.378101, 0.437162, 0.896713, 1.487233, 1.730241, 2.443703, 1.602392, 1.400327, -0.417134, 1.211817, 0.354885, 1.720076, 0.095095, -0.764635, -0.246195, 1.415036, 0.020510, 0.081223, -0.373865, -0.146450, 0.971088, -1.268181, 1.949297 },
  { 0.000000, 0.000000, 0.000000, 0.000000, 0.000000, 0.650201, -0.208357, -0.453465, 0.289545, 1.011520, 0.677933, 1.905977, 1.544857, 1.303601, 0.000504, -0.012099, 0.739852, 0.212078, 0.436567, 0.109070, -0.775102, -0.886232, -0.523303, -1.116868, -0.727243, 0.833838, 0.519606, -0.368182, 0.409967, -1.289513, -0.412942, -0.196547 },
  { 0.000000, 0.000000, 0.000000, 0.000000, 0.000000, -0.616331, 0.654679, 0.564235, 0.312435, 1.285494, 1.872356, -0.480322, 0.301486, 1.050059, 1.424977, 0.306365, 2.759872, 1.756980, 0.710500, 2.814130, 1.484713, 0.674924, -0.914273, 1.072989, 1.677398, -0.197849, -0.382953, 0.517527, 0.574772, 0.485666, -0.447352, -0.532157 },
  { 0.000000, 0.000000, 0.000000, 0.000000, 0.000000, 0.872065, 0.927077, 0.015502, 1.728737, 0.019671, 0.595381, 0.266954, -0.171640, -0.025516, -0.042683, 0.167898, -0.152963, 1.049195, -0.002112, 0.475178, 2.540342, 0.395730, -0.884110, 2.515135, 0.177091, -1.297350, -0.871689, -0.158291, 2.990381, -0.802784, 0.310110, 1.323385 },
  { 0.000000, 0.000000, 0.000000, 0.000000, 0.000000, 0.020819, -0.177686, 1.360945, 0.480850, 1.186798, 1.504818, 0.419977, 0.796410, 0.810415, 0.628541, 1.647824, 1.027991, 0.005494, -0.375006, 0.424350, -0.610640, 1.555437, 1.545039, -1.058191, 1.759684, 0.176274, 0.670768, -0.464525, -0.464191, 1.191381, 0.307717, -0.277451 },
  { 0.000000, 0.000000, 0.000000, 0.000000, 0.000000, 1.713340, 1.707097, 1.236307, 2.180979, 0.371364, 1.297745, 1.608144, 0.243348, 0.173263, 1.045425, 1.677883, 0.239799, 0.161074, 2.316942, 2.115401, 1.087624, 0.819941, -0.600951, -0.372280, -1.139484, -0.761243, -1.303356, -0.822321, 0.856759, 1.905208, 1.406800, -0.520432 },
  { 0.000000, 0.000000, 0.000000, 0.000000, 0.000000, 1.305651, 1.106755, 1.242048, 0.026226, -0.320645, -0.078222, 0.283913, 0.800233, 0.657849, 0.799615, 0.550416, 0.543078, 0.315811, 0.681272, 0.039378, 2.089681, 2.775927, -1.098673, 1.726852, 2.030179, -0.917112, 0.057870, -0.103391, 1.250829, 1.685903, -0.909532, 2.240688 },
  { 0.000000, 0.000000, 0.000000, 0.000000, 0.000000, 1.362190, 1.756843, 1.399820, 1.170083, 1.200645, 1.175042, 2.170747, 0.420607, 0.562352, 1.088343, 0.776319, 1.440008, 2.715773, 3.124026, 0.548527, -0.713636, 0.436438, -0.621827, -0.249140, 0.785640, -0.278557, 0.337227, -0.793329, -0.006489, 0.522348, 1.748156, -0.369941 },
  { 0.000000, 0.000000, 0.000000, 0.000000, 0.000000, 1.399161, 1.647756, -0.232758, 0.154265, 0.855707, 0.456882, 1.299470, 1.820481, 3.038418, 1.920426, 1.310570, 0.005208, 0.610236, 1.179147, 2.426311, 3.429610, 2.173548, -0.015937, 0.455806, 0.741341, -1.172577, 1.136696, 1.526347, -0.795557, -0.545626, 0.017551, 0.453340 },
  { 0.000000, 0.000000, 0.000000, 0.000000, 0.000000, -0.137314, -0.004405, 0.652507, 0.990022, 0.898718, 0.993999, 1.176727, 2.456442, 1.112661, 0.415825, 0.400075, -0.718640, 0.304288, 1.123085, 0.595611, 0.768213, 0.036333, 1.372457, 1.565324, 1.866247, 0.118554, 1.542717, -0.367310, 0.028236, 0.620380, 2.405565, -0.847842 },
  { 0.000000, 0.000000, 0.000000, 0.000000, 0.000000, -0.254129, 0.228448, -0.289307, 0.399115, 0.595360, -0.159223, -0.630222, -0.017641, 0.416121, 0.910697, 0.310062, -0.467715, -0.199754, 2.096324, 0.906293, 0.579086, -0.260735, 0.651704, -0.857461, -0.584429, 0.680552, -0.462194, -1.197048, -0.486006, 1.248338, 0.833626, -0.935282 },
  { 0.000000, 0.000000, 0.000000, 0.000000, 0.000000, 0.508154, -0.491219, 0.447850, -0.317894, -0.243597, 0.337284, 0.651269, 0.370567, 0.004459, 0.777517, -0.355426, -0.543095, -0.485392, 0.038016, -0.713931, 0.072615, -0.065819, -1.494039, 0.824007, 1.124712, -0.393901, 1.684158, -1.361652, 0.648724, -1.141257, -1.333035, -0.036824 },
  { 0.000000, 0.000000, 0.000000, 0.000000, 0.000000, 0.161652, 0.027280, -0.270755, -0.410539, 0.226616, 0.213433, 0.919659, 0.307847, -0.080699, -0.040687, 0.454793, 0.792782, 0.435250, -0.413750, 0.158721, 0.816739, 0.134630, 0.060034, -0.072613, 0.085019, -0.617746, -0.164115, 1.126395, -0.284893, -0.681822, -0.931852, 0.326686 },
  { 0.000000, 0.000000, 0.000000, 0.000000, 0.000000, -0.267056, 0.332650, 0.646616, 0.553213, 0.472069, 0.613033, 0.049407, 0.156375, 0.399156, -0.118045, 0.130022, -0.355291, -0.329620, -0.032530, 0.487496, 0.723613, 0.162997, 0.009873, 1.039046, -0.444600, -1.073332, 0.617805, -0.517455, 1.392692, -0.025106, -0.696255, 0.409380 },
  { 0.000000, 0.000000, 0.000000, 0.000000, 0.000000, 0.176197, 0.183021, -0.125863, 0.206409, 0.042734, 0.014086, 0.132314, 0.090508, 0.244469, 0.541574, 0.184781, 0.453693, 0.581162, 0.341067, -0.250372, 0.187505, -0.072633, -0.355836, -0.310206, -1.252125, 0.190191, 0.559517, 0.047558, -0.238216, -0.674167, -1.127176, -1.140554 },
  { 0.000000, 0.000000, 0.000000, 0.000000, 0.000000, 0.538872, -0.012951, 0.231820, 0.061414, -0.150445, 0.369399, -0.321663, 1.221299, 1.036823, 0.638919, 0.901083, 0.365279, 0.854873, -0.060386, 0.565192, 0.572407, -0.123308, -0.260650, 0.038567, -0.900522, 0.223725, 0.245127, 0.193293, 1.455453, -1.027541, 0.406383, 0.451510 },
  { 0.000000, 0.000000, 0.000000, 0.000000, 0.000000, -0.106887, 0.249642, 0.420705, 0.331566, -0.216818, 0.660590, -0.152420, 0.591068, 0.503311, -0.368841, 0.925620, 1.097085, 0.073333, 0.193590, -0.083228, 0.247210, -0.219883, 1.699999, 0.263389, 1.365691, 0.561972, -0.409375, 1.317316, -0.016671, 1.588522, 0.706131, -0.010573 },
